/*
 * Copyright (c) 2026 EdgeImpulse Inc.
 *
 * Generated by Edge Impulse and licensed under the applicable Edge Impulse
 * Terms of Service. Community and Professional Terms of Service
 * (https://edgeimpulse.com/legal/terms-of-service) or Enterprise Terms of
 * Service (https://edgeimpulse.com/legal/enterprise-terms-of-service),
 * according to your product plan subscription (the “License”).
 *
 * This software, documentation and other associated files (collectively referred
 * to as the “Software”) is a single SDK variation generated by the Edge Impulse
 * platform and requires an active paid Edge Impulse subscription to use this
 * Software for any purpose.
 *
 * You may NOT use this Software unless you have an active Edge Impulse subscription
 * that meets the eligibility requirements for the applicable License, subject to
 * your full and continued compliance with the terms and conditions of the License,
 * including without limitation any usage restrictions under the applicable License.
 *
 * If you do not have an active Edge Impulse product plan subscription, or if use
 * of this Software exceeds the usage limitations of your Edge Impulse product plan
 * subscription, you are not permitted to use this Software and must immediately
 * delete and erase all copies of this Software within your control or possession.
 * Edge Impulse reserves all rights and remedies available to enforce its rights.
 *
 * Unless required by applicable law or agreed to in writing, the Software is
 * distributed on an "AS IS" BASIS, WITHOUT WARRANTIES OR CONDITIONS OF ANY KIND,
 * either express or implied. See the License for the specific language governing
 * permissions, disclaimers and limitations under the License.
 */
// Generated on: 21.02.2026 19:38:19

#include <stdio.h>
#include <stdlib.h>
#include "edge-impulse-sdk/tensorflow/lite/c/builtin_op_data.h"
#include "edge-impulse-sdk/tensorflow/lite/c/common.h"
#include "edge-impulse-sdk/tensorflow/lite/micro/micro_mutable_op_resolver.h"
#include "edge-impulse-sdk/porting/ei_classifier_porting.h"

#if EI_CLASSIFIER_PRINT_STATE
#if defined(__cplusplus) && EI_C_LINKAGE == 1
extern "C" {
    extern void ei_printf(const char *format, ...);
}
#else
extern void ei_printf(const char *format, ...);
#endif
#endif

#define STRINGIZE(x) #x
#define STRINGIZE_VALUE_OF(x) STRINGIZE(x)

#if defined (__GNUC__)  /* GNU compiler */
#define ALIGN(X) __attribute__((aligned(X)))
#define DEFINE_SECTION(x) __attribute__((section(x)))
#elif defined (_MSC_VER)
#define ALIGN(X) __declspec(align(X))
#elif defined (__TASKING__) /* TASKING Compiler */
#define ALIGN(X) __align(X)
#define DEFINE_SECTION(x) __attribute__((section(x)))
#elif defined (__ARMCC_VERSION) /* Arm Compiler */
#define ALIGN(X) __ALIGNED(x)
#define DEFINE_SECTION(x) __attribute__((section(x)))
#elif defined (__ICCARM__) /* IAR Compiler */
#define ALIGN(x) __attribute__((aligned(x)))
#define DEFINE_SECTION(x) __attribute__((section(x)))
#elif defined (__clang__) /* LLVM/Clang Compiler */
#define ALIGN(X) __ALIGNED(x)
#define DEFINE_SECTION(x) __attribute__((section(x)))
#endif

#if defined(EI_MODEL_SECTION) && (defined(__GNUC__) || defined(__clang__))
#define MODEL_SECTION(X) __attribute__((section(STRINGIZE_VALUE_OF(X))))
#else
#define MODEL_SECTION(X)
#endif

#ifndef EI_MAX_SCRATCH_BUFFER_COUNT
#ifndef CONFIG_IDF_TARGET_ESP32S3
#define EI_MAX_SCRATCH_BUFFER_COUNT 14
#else
#define EI_MAX_SCRATCH_BUFFER_COUNT 28
#endif // CONFIG_IDF_TARGET_ESP32S3
#endif // EI_MAX_SCRATCH_BUFFER_COUNT

#ifndef EI_MAX_OVERFLOW_BUFFER_COUNT
#define EI_MAX_OVERFLOW_BUFFER_COUNT 10
#endif // EI_MAX_OVERFLOW_BUFFER_COUNT

using namespace tflite;
using namespace tflite::ops;
using namespace tflite::ops::micro;

namespace {

#if defined(EI_CLASSIFIER_ALLOCATION_STATIC_HIMAX) || defined(EI_CLASSIFIER_ALLOCATION_STATIC_HIMAX_GNU)
constexpr int kTensorArenaSize = 242656;
#else
constexpr int kTensorArenaSize = 241632;
#endif

#if defined(EI_CLASSIFIER_ALLOCATION_STATIC)
#if defined (EI_TENSOR_ARENA_LOCATION)
uint8_t tensor_arena[kTensorArenaSize] ALIGN(16) DEFINE_SECTION(STRINGIZE_VALUE_OF(EI_TENSOR_ARENA_LOCATION));
#else
uint8_t tensor_arena[kTensorArenaSize] ALIGN(16);
#endif
#elif defined(EI_CLASSIFIER_ALLOCATION_STATIC_HIMAX)
#pragma Bss(".tensor_arena")
uint8_t tensor_arena[kTensorArenaSize] ALIGN(16);
#pragma Bss()
#elif defined(EI_CLASSIFIER_ALLOCATION_STATIC_HIMAX_GNU)
uint8_t tensor_arena[kTensorArenaSize] ALIGN(16) __attribute__((section(".tensor_arena")));
#else
#define EI_CLASSIFIER_ALLOCATION_HEAP 1
uint8_t* tensor_arena = NULL;
#endif

static uint8_t* tensor_boundary;
static uint8_t* current_location;

template <int SZ, class T> struct TfArray {
  int sz; T elem[SZ];
};

enum used_operators_e {
  OP_CONV_2D, OP_DEPTHWISE_CONV_2D, OP_PAD, OP_ADD, OP_SOFTMAX,  OP_LAST
};

struct TensorInfo_t { // subset of TfLiteTensor used for initialization from constant memory
  TfLiteAllocationType allocation_type;
  TfLiteType type;
  void* data;
  TfLiteIntArray* dims;
  size_t bytes;
  TfLiteQuantization quantization;
};

typedef struct {
  TfLiteTensor tensor;
  int16_t index;
} TfLiteTensorWithIndex;

typedef struct {
  TfLiteEvalTensor tensor;
  int16_t index;
} TfLiteEvalTensorWithIndex;

TfLiteContext ctx{};
static const int MAX_TFL_TENSOR_COUNT = 4;
static TfLiteTensorWithIndex tflTensors[MAX_TFL_TENSOR_COUNT];
static const int MAX_TFL_EVAL_COUNT = 4;
static TfLiteEvalTensorWithIndex tflEvalTensors[MAX_TFL_EVAL_COUNT];
TfLiteRegistration registrations[OP_LAST];

namespace g0 {
const TfArray<4, int> tensor_dimension0 = { 4, { 1,96,96,3 } };
const TfArray<1, float> quant0_scale = { 1, { 0.0037524029612541199, } };
const TfArray<1, int> quant0_zero = { 1, { -128 } };
const TfLiteAffineQuantization quant0 = { (TfLiteFloatArray*)&quant0_scale, (TfLiteIntArray*)&quant0_zero, 0 };
const MODEL_SECTION(EI_MODEL_SECTION) ALIGN(16) int32_t tensor_data1[4*2] = { 
  0, 0, 
  0, 1, 
  0, 1, 
  0, 0, 
};
const TfArray<2, int> tensor_dimension1 = { 2, { 4,2 } };
const MODEL_SECTION(EI_MODEL_SECTION) ALIGN(8) int32_t tensor_data2[3] = { 32249, -37669, -39582, };
const TfArray<1, int> tensor_dimension2 = { 1, { 3 } };
const TfArray<3, float> quant2_scale = { 3, { 0.0001543740218039602, 0.00015053317474666983, 0.00014165727770887315, } };
const TfArray<3, int> quant2_zero = { 3, { 0,0,0 } };
const TfLiteAffineQuantization quant2 = { (TfLiteFloatArray*)&quant2_scale, (TfLiteIntArray*)&quant2_zero, 0 };
const MODEL_SECTION(EI_MODEL_SECTION) ALIGN(16) int8_t tensor_data3[3*1*1*32] = { 
  /* [0][0][][] */ 85,76,113,-88,-49,18,-24,36,0,52,49,-36,-33,-92,91,30,-54,76,89,113,-26,-12,55,-88,-127,118,-62,13,72,14,-21,-10, 
  /* [1][0][][] */ 57,-43,-69,20,-9,127,-15,-10,121,-58,-3,-76,-64,107,33,-53,92,-51,-7,-100,-116,20,107,68,13,8,2,-14,-78,-54,-3,-39, 
  /* [2][0][][] */ -28,84,-84,84,78,-44,-32,123,97,26,125,-18,-105,-99,85,127,-88,-63,9,-122,78,119,-63,-111,99,-73,-17,-126,6,-83,90,-21, 
};
const TfArray<4, int> tensor_dimension3 = { 4, { 3,1,1,32 } };
const TfArray<3, float> quant3_scale = { 3, { 0.0033301962539553642, 0.0032473404426127672, 0.0030558675061911345, } };
const TfLiteAffineQuantization quant3 = { (TfLiteFloatArray*)&quant3_scale, (TfLiteIntArray*)&g0::quant2_zero, 0 };
const MODEL_SECTION(EI_MODEL_SECTION) ALIGN(16) int32_t tensor_data4[32] = { -153, 244, -145, 43, -449, 96, -226, 165, 123, 322, -207, -98, -339, 232, -548, 189, -425, 20, -59, -107, -139, -106, -508, 257, 253, 814, -320, -215, 674, -177, -317, -278, };
const TfArray<1, int> tensor_dimension4 = { 1, { 32 } };
const TfArray<32, float> quant4_scale = { 32, { 4.1677449189592153e-05, 4.2281721107428893e-05, 4.1015369788510725e-05, 4.3916479626204818e-05, 4.3021576857427135e-05, 4.3724772694986314e-05, 4.1237904952140525e-05, 4.199461909593083e-05, 4.3883614125661552e-05, 4.7050361899891868e-05, 4.3214564357185736e-05, 4.7369492676807567e-05, 4.2241488699801266e-05, 4.2008068703580648e-05, 4.3519696191651747e-05, 4.111004454898648e-05, 3.9897131500765681e-05, 4.1978073568316177e-05, 4.0255748899653554e-05, 3.9784856198821217e-05, 4.17793016822543e-05, 4.1703129681991413e-05, 4.3784279114333913e-05, 4.0233411709778011e-05, 4.3816697143483907e-05, 4.4509193685371429e-05, 4.2106370528927073e-05, 4.0250251913676038e-05, 4.0800910937832668e-05, 4.0491944673703983e-05, 4.1964085539802909e-05, 4.6195647882996127e-05, } };
const TfArray<32, int> quant4_zero = { 32, { 0,0,0,0,0,0,0,0,0,0,0,0,0,0,0,0,0,0,0,0,0,0,0,0,0,0,0,0,0,0,0,0 } };
const TfLiteAffineQuantization quant4 = { (TfLiteFloatArray*)&quant4_scale, (TfLiteIntArray*)&quant4_zero, 0 };
const MODEL_SECTION(EI_MODEL_SECTION) ALIGN(16) int8_t tensor_data5[32*1*1*96] = { 
  /* [0][0][][] */ -39,-55,105,8,104,-20,-97,-106,57,-110,-114,-9,47,2,-44,55,-63,-40,-71,-66,-81,-112,0,106,-117,5,73,-57,106,-9,-28,-89,79,-69,-109,61,-118,-88,-97,27,71,-92,-104,100,48,-117,107,-26,12,-64,-42,90,-84,-55,-105,100,19,60,125,-116,-88,83,-62,39,-15,9,68,94,51,84,82,-127,104,-110,36,84,-120,10,-68,32,47,20,86,-11,-68,-48,-91,101,20,112,-15,-118,5,61,20,4, 
  /* [1][0][][] */ -66,38,-74,-7,-52,89,45,13,77,-98,-101,114,74,-23,31,62,116,-35,39,127,-42,-1,41,34,43,13,-36,113,17,12,104,-60,63,104,-9,34,58,68,-9,-73,-57,12,-17,-93,-30,43,-25,-49,-21,-80,123,67,16,82,-74,-46,35,94,67,80,-53,123,-61,-81,-54,43,83,36,113,33,25,15,-126,88,-45,51,92,-43,-36,70,-75,81,-47,-114,35,124,-78,-60,87,90,101,33,91,100,36,-3, 
  /* [2][0][][] */ 41,36,-68,93,-2,-69,88,93,-108,84,-42,115,84,-22,82,-116,-65,-31,33,50,-109,-20,114,17,-12,75,103,4,-79,76,77,93,-73,-25,-97,-116,-93,94,107,-34,-127,-87,8,-10,-92,117,-30,-85,101,32,95,-98,-54,66,17,10,-78,95,-66,4,-25,63,-42,65,92,43,47,84,-103,63,5,-85,35,-80,29,26,-62,-29,1,10,34,-101,-20,-51,-4,-108,-24,-39,87,114,-16,1,-54,-96,-51,-78, 
  /* [3][0][][] */ 62,4,38,-30,-87,61,-106,42,47,29,65,13,105,100,76,-6,108,101,-48,24,122,-84,-62,-107,-40,-108,-73,111,53,-86,90,16,-53,-37,-26,-10,-86,-20,45,44,-20,-84,-92,5,75,33,-47,-77,70,-71,45,8,101,22,96,-89,-106,-126,-120,-62,-86,38,-28,79,60,-27,-58,-34,-26,-67,13,108,13,-112,61,-46,40,98,98,-75,-81,-127,47,97,34,50,-49,-108,-72,49,1,-97,99,-82,-83,38, 
  /* [4][0][][] */ 44,89,-9,46,-38,-33,23,9,52,73,-16,40,22,-45,-21,-74,-35,-16,-71,0,98,-98,76,18,-30,-11,54,-67,-57,26,-75,-69,53,105,8,-116,-61,-16,-118,41,-59,-71,-80,-99,23,96,25,48,10,-48,-23,-91,-97,35,-97,11,19,-101,21,5,-1,-84,-47,-80,-55,46,-6,-43,15,-107,-104,-92,-62,10,88,45,49,-31,-16,-66,-5,-52,-105,-29,-9,60,82,-10,-127,-84,37,27,21,82,-105,-24, 
  /* [5][0][][] */ 99,-93,81,84,20,-123,28,59,107,-123,0,-80,12,101,34,36,45,58,-74,86,29,53,19,-29,-111,-55,-14,-86,36,19,20,-108,-41,5,-69,4,-127,-38,33,26,-90,-47,43,81,-33,24,33,-53,-103,91,7,19,30,15,24,-18,94,50,-61,-39,31,-81,22,-65,-40,90,-24,33,58,5,87,-67,-45,76,-35,-67,-3,-46,14,84,95,43,20,110,-80,80,-2,21,58,-105,102,79,-15,14,52,-77, 
  /* [6][0][][] */ 15,-50,116,77,-68,-69,-4,65,-17,-88,5,-94,86,55,118,-122,41,1,0,103,-84,-125,112,59,-54,-88,-11,-61,-30,-121,46,-83,-95,-127,-45,-112,-10,39,-115,82,87,56,21,-18,-120,107,-94,-49,-89,16,-28,-71,60,-58,95,-31,5,-9,-68,118,-102,3,68,-76,-54,66,103,-53,81,-9,-111,-8,60,-74,-95,-44,-86,-106,-61,-32,32,-28,42,-31,-77,-93,-43,-101,84,96,104,15,-57,-72,78,-32, 
  /* [7][0][][] */ 99,74,-39,-58,-95,125,-16,3,106,11,-97,23,66,-86,52,52,59,21,1,124,62,38,-3,94,-94,107,47,62,-73,117,-16,43,26,24,52,107,-103,94,-5,-42,102,-73,92,75,56,2,109,-109,57,-50,-111,-63,-20,81,24,37,126,-115,-5,-63,13,-3,88,-112,-66,-51,72,7,-105,26,74,93,74,21,66,63,-58,59,-98,27,100,-58,-12,-71,94,40,-127,102,90,11,90,74,-51,-35,2,-64, 
  /* [8][0][][] */ 16,35,-41,-84,35,33,-70,-17,9,42,46,100,13,-38,-80,-73,-64,95,-60,24,37,-22,82,112,-127,98,49,79,-61,27,-83,120,91,-30,45,0,116,6,-16,73,82,106,-103,-113,-8,-24,-21,109,22,-83,-69,4,-59,-10,-25,-98,52,106,-94,101,116,40,46,114,-28,-41,-18,103,-82,56,36,6,73,67,13,25,-40,106,84,73,39,79,-101,-78,29,45,75,-36,43,-35,-88,105,-73,-90,-47,67, 
  /* [9][0][][] */ -1,19,111,50,100,-104,-37,-105,45,48,-3,64,-24,-68,-84,-12,20,8,-79,-55,5,99,-90,-87,127,-10,-5,33,9,-41,-78,101,72,6,34,-4,-46,21,-10,-36,51,-59,56,-72,81,24,-91,59,57,7,-61,-25,84,-62,-56,93,96,-44,13,9,-82,124,94,-62,-57,13,104,45,-20,100,114,-86,22,79,-72,-79,-53,-97,-29,105,37,34,95,26,-33,-87,41,-5,93,42,-12,107,104,4,69,-25, 
  /* [10][0][][] */ -84,78,83,-84,-37,107,102,23,19,32,15,-67,106,79,-39,-10,-37,74,-108,-59,-17,21,50,-72,11,46,-121,-115,-48,84,-99,-81,81,87,100,69,-44,2,-34,13,-39,114,-127,-40,-104,-62,-11,-62,-6,5,35,13,60,3,-63,-34,-99,-39,12,-58,-1,73,111,36,116,-78,-104,-43,15,-44,-93,-65,73,46,-84,102,-12,58,61,2,76,-19,60,97,-104,65,83,-24,37,6,-16,-67,-52,-45,-47,-88, 
  /* [11][0][][] */ 97,9,-15,91,127,59,46,24,98,104,-73,123,9,-80,23,-62,-47,-95,75,55,25,65,20,-102,-92,-90,-22,63,92,9,20,-11,-82,-69,46,41,-52,65,-27,-57,-27,92,-71,3,-40,-57,-86,-83,67,111,101,63,-64,-86,37,20,-43,-49,-12,-83,-76,101,92,26,37,76,-54,23,91,49,-57,-66,36,92,-71,44,-42,29,-44,77,-99,-25,-68,-44,39,-75,10,-25,-88,-10,27,-77,-79,-12,-63,-36, 
  /* [12][0][][] */ 6,61,-64,-8,110,-2,-44,27,-86,52,-22,6,-55,4,41,-84,-109,-41,-55,-91,18,-18,10,91,-61,-59,93,-109,86,4,-45,109,-94,-79,-53,8,-11,-84,-26,36,109,32,-122,-48,-29,-92,-47,111,-52,-127,-80,98,30,-6,-92,77,-28,-67,55,62,51,110,-13,46,107,26,-54,111,51,93,34,64,82,110,-25,-13,-45,28,-126,-104,-67,101,38,7,-45,25,47,108,-104,-118,91,36,94,-26,23,67, 
  /* [13][0][][] */ 119,-50,112,103,89,116,87,72,79,-108,17,-29,90,81,73,-47,-118,-69,-69,26,77,-23,127,-43,-76,51,11,30,-95,-97,93,32,41,112,-21,44,-84,-26,27,76,-61,88,-48,17,-39,34,1,-27,43,97,-49,-115,-103,32,100,-73,-51,33,-21,-73,-23,112,-88,22,-59,-63,-90,95,-51,-7,97,9,-90,42,-75,-35,-115,75,89,-60,56,-95,101,29,-78,-96,100,114,-5,-55,-88,52,121,-58,54,0, 
  /* [14][0][][] */ -63,-108,73,59,73,-40,-29,-122,-87,-47,56,72,-29,-91,-102,-92,-65,-71,5,15,-55,19,-14,48,-118,-81,-46,19,-124,-124,-87,29,92,-34,-44,-5,82,106,26,-121,-15,-121,27,76,57,-120,55,-96,102,35,75,42,87,-25,-25,3,-61,6,49,88,-25,-93,-37,61,-98,-24,63,-112,-98,-92,-95,82,-4,72,37,-84,43,-119,41,29,33,-26,-127,-45,-127,-102,-118,95,96,-4,75,-60,76,90,-23,60, 
  /* [15][0][][] */ 12,-21,-37,73,82,-80,72,-96,58,7,-70,22,124,8,-86,-123,102,19,-91,36,60,23,81,123,83,68,50,105,33,70,74,-95,9,3,-68,3,-62,126,122,-77,26,125,-44,-16,33,-73,-37,-75,-4,-72,4,42,-94,-110,-42,2,81,49,-53,104,-38,-61,11,112,-28,112,-71,-2,-52,13,76,-68,9,-20,69,-108,9,64,117,78,-75,55,-102,-59,-117,-29,-103,50,99,83,-110,-32,67,127,-101,122, 
  /* [16][0][][] */ -66,-4,119,-58,51,114,-60,47,59,46,-111,70,-21,-47,-67,-61,109,73,75,64,114,90,-43,47,-45,72,-77,67,-114,8,48,7,-115,90,64,58,-43,49,-59,-66,15,-53,83,90,60,103,105,-23,-60,-125,-2,111,-50,127,66,46,21,103,76,18,120,110,28,72,55,5,-35,108,40,112,-41,-13,38,104,63,100,-20,100,-115,-9,7,-83,57,16,4,101,117,2,78,1,-26,115,71,-40,-99,29, 
  /* [17][0][][] */ 35,-104,26,83,-39,-127,-67,-105,42,-96,89,42,90,63,-115,58,34,58,113,113,-99,-13,16,-51,49,62,-82,14,104,-59,-37,79,-24,-20,37,14,-47,109,-81,-33,-93,-47,-21,-3,11,15,94,-112,93,99,-5,30,-21,88,100,-83,-116,92,-60,-109,32,-97,88,92,-83,-73,45,-110,-113,-10,114,20,25,-119,-71,65,121,-46,43,-57,9,-7,-83,-100,-117,75,84,-32,16,88,-87,-123,-15,90,25,7, 
  /* [18][0][][] */ -101,105,116,-63,-3,-112,-110,9,8,92,-115,-41,-33,36,64,-51,22,-27,74,-21,107,-49,22,-84,41,-105,-19,119,32,39,1,51,54,-30,-112,-112,-34,34,-25,64,-45,-2,-56,-9,-121,17,25,-5,21,-21,82,37,-104,-7,5,91,-37,34,-17,-127,92,116,9,36,-72,-121,-34,91,81,-86,-75,114,-105,-34,-95,-109,63,58,-2,-55,-59,-8,-29,-67,108,-38,73,78,-115,-75,-60,117,93,-55,58,-28, 
  /* [19][0][][] */ 23,32,82,44,82,-91,105,98,103,-68,33,-13,-104,37,-58,71,79,-107,126,61,-23,88,-57,15,91,-87,33,-73,-99,-127,-69,49,92,-84,42,-1,9,-72,-60,-105,50,-124,-88,12,-91,33,86,-99,-27,39,-33,49,-37,25,5,-12,26,113,26,-24,60,-59,111,65,-75,-1,-26,1,-9,58,84,-56,-59,-125,-61,-85,-24,-118,18,120,63,-117,-32,83,-92,-7,13,-3,96,35,5,68,-33,120,81,-53, 
  /* [20][0][][] */ -12,78,67,95,-91,106,20,57,14,24,-89,16,6,86,47,-75,-41,-28,-62,-21,35,-48,-81,-59,85,-79,-105,49,35,25,-44,127,107,44,-14,66,53,-21,-6,-113,-71,-31,-93,-93,-24,-59,-65,121,61,-108,-87,52,59,116,64,8,106,75,100,89,125,-45,-56,-33,-18,-52,-54,12,-73,-81,-57,88,-68,-86,39,16,124,76,111,109,102,4,99,-26,72,125,-18,89,32,117,40,78,32,38,12,4, 
  /* [21][0][][] */ 90,75,69,-111,76,-75,72,14,-8,-65,-80,46,11,39,-56,-106,-108,-35,26,-8,113,-55,68,-88,39,-90,-35,76,16,9,-9,-22,2,13,-109,-120,111,96,-123,-40,-10,7,26,-18,-105,-88,-91,93,-26,-67,-20,91,38,58,-96,30,-50,43,-74,114,59,-83,14,-14,77,30,-42,-74,-116,-6,62,83,21,-34,73,66,-112,-35,61,97,14,91,39,-76,24,-100,57,-85,-105,77,103,-127,-45,-63,63,-35, 
  /* [22][0][][] */ 21,-65,-83,-103,81,-53,97,44,-104,73,-85,-108,118,-121,-124,-96,26,72,-110,-68,77,-84,20,20,80,-16,-124,95,-66,-81,-76,-119,56,49,13,0,-9,-27,-71,-124,-10,-24,-10,81,43,-127,78,-33,-71,-81,-1,-28,-70,-102,-59,22,-12,-40,-27,-41,98,-86,-85,-123,-77,7,-123,-53,100,91,-31,-11,-77,-4,53,-101,36,-63,53,81,94,-106,-81,-127,66,72,85,-44,-66,20,-68,52,9,11,-41,87, 
  /* [23][0][][] */ 73,-86,12,64,96,-125,8,-103,63,-91,95,82,17,-108,23,-41,100,-33,-110,103,108,-83,116,-33,-28,-6,93,32,74,42,83,-45,-37,50,20,44,108,-5,-120,11,-110,8,14,-113,-71,-92,122,30,89,-124,-111,-66,90,-64,-57,105,-90,-19,104,51,-112,-102,-70,1,16,40,-121,-112,50,-11,123,-63,-4,-35,-35,-95,38,-18,105,127,-53,-53,29,-104,105,15,125,-23,-88,43,101,-1,118,-61,-49,96, 
  /* [24][0][][] */ -99,-42,-96,-82,-83,-97,-61,-88,63,124,84,54,124,67,-33,-127,-73,48,31,-43,103,-74,-49,-29,31,-28,80,65,113,63,9,-57,15,6,46,35,-44,-80,64,-21,-68,-91,102,11,25,-33,36,76,-72,-38,-39,22,77,37,76,-66,6,61,26,4,97,0,44,99,-107,101,-40,-90,-96,52,-46,-18,-48,20,103,107,69,-67,-96,-103,-71,-108,-53,-110,9,71,-18,-92,35,-100,13,-71,-12,37,-93,30, 
  /* [25][0][][] */ -71,-39,-60,11,110,-79,-81,69,66,-102,-15,22,58,10,-88,4,-55,79,40,-114,67,102,8,-42,39,-33,-85,46,84,-96,55,127,103,-84,69,84,110,-38,-6,7,-61,106,-82,21,116,59,87,53,-85,90,-52,12,50,2,-54,13,-19,65,-78,97,115,62,56,56,24,91,3,5,-61,16,-20,-107,58,-84,78,37,75,89,31,39,61,73,-50,97,-56,-32,-76,-73,-19,-18,120,42,-105,-22,7,-62, 
  /* [26][0][][] */ 63,-123,-26,-22,-94,-7,-16,-17,-113,-127,104,85,-81,-51,6,-23,112,27,-81,-72,11,68,97,10,38,64,9,45,10,2,-97,-6,-33,-65,-110,-108,-70,83,-56,107,-105,101,54,28,-77,71,-45,100,-25,27,-6,98,9,-47,-7,-111,96,69,48,21,0,-101,62,-20,114,-24,-62,58,-93,78,87,96,76,-100,-91,4,43,-114,-102,8,-33,69,81,-78,77,-3,-50,10,-87,112,5,14,-60,113,49,89, 
  /* [27][0][][] */ 14,6,-70,-108,-112,-79,-76,-21,45,103,37,-116,-33,58,84,-23,67,-20,78,-91,-102,9,-33,-28,-89,47,-117,-7,66,27,-37,-13,65,71,-98,-95,-98,-71,-123,92,-103,16,27,15,102,23,71,107,93,68,61,-82,-100,-92,-10,-39,105,-14,-109,-83,-64,-68,-39,56,39,-52,-121,111,49,9,-127,5,64,-57,-13,-96,47,-72,91,116,87,-27,120,-62,-82,-91,-35,30,-54,-7,-38,-57,57,15,90,59, 
  /* [28][0][][] */ 91,22,103,56,-93,-52,-90,-63,-33,-81,75,100,-97,-85,26,123,124,124,-75,97,-32,36,-97,-58,-93,80,-88,-58,-48,-68,1,-5,-91,26,96,102,49,-95,-16,38,127,48,-96,80,-90,0,26,75,45,-48,-95,-12,-73,31,87,31,91,-8,111,72,-20,-14,-77,-12,89,97,-10,86,-56,25,-94,-54,92,50,25,-89,-113,-45,-81,58,-71,-82,102,-32,77,-113,79,-73,-112,-48,-9,-48,-48,60,-77,-89, 
  /* [29][0][][] */ 54,56,58,-58,-64,9,-126,5,103,-19,-95,-103,107,-112,-52,-43,-106,107,28,-73,-83,-37,58,4,-19,5,-48,-32,-111,-13,107,-7,58,1,-83,-59,-12,107,-12,98,49,109,-49,86,-1,109,-57,-28,19,-11,64,-103,74,-102,115,45,-103,62,-46,118,-127,104,-102,-56,-65,-69,55,91,100,-92,34,-80,123,83,62,26,117,-65,-33,37,-8,-85,-14,-84,65,120,47,80,-43,101,80,81,-112,13,-2,61, 
  /* [30][0][][] */ 20,-77,-71,34,-101,22,-72,-23,114,-25,-9,-46,-103,15,50,11,-13,30,94,-112,36,-109,-123,6,-119,16,-74,119,-13,-111,-102,-3,-86,-80,-122,-66,7,-27,-12,22,81,-88,-22,90,96,-54,95,52,-76,76,17,-110,96,-59,-20,95,-83,-57,-83,-57,-108,-9,-83,-29,-114,-99,-101,92,-66,105,48,-42,-92,99,31,-92,-60,-80,-82,-66,22,27,-108,-25,-118,19,-114,103,-43,-127,80,52,-36,-11,6,-76, 
  /* [31][0][][] */ 84,-90,35,120,68,54,-59,-95,-7,-22,-77,-85,89,-117,-48,127,-61,-87,45,42,55,31,-31,95,66,-109,31,40,-71,-73,42,98,25,18,-73,-10,87,-32,-66,-99,53,-68,-32,27,1,-54,-40,20,64,20,88,-31,-96,-53,-79,19,-114,89,10,113,-40,-3,76,-57,63,101,-44,-49,65,-110,-114,6,-67,-40,-1,3,-59,-47,43,110,-74,-17,48,65,49,86,-69,13,13,-52,-69,-55,8,93,-7,-21, 
};
const TfArray<4, int> tensor_dimension5 = { 4, { 32,1,1,96 } };
const TfArray<32, float> quant5_scale = { 32, { 0.0017712914850562811, 0.0017969731707125902, 0.00174315320327878, 0.0018664503004401922, 0.0018284169491380453, 0.0018583028577268124, 0.001752610900439322, 0.0017847713315859437, 0.0018650535494089127, 0.0019996403716504574, 0.001836618990637362, 0.0020132034551352262, 0.0017952632624655962, 0.0017853429308161139, 0.0018495870754122734, 0.0017471768660470843, 0.0016956280451267958, 0.0017840680666267872, 0.0017108692554756999, 0.0016908562975004315, 0.0017756202723830938, 0.0017723829951137304, 0.0018608318641781807, 0.0017099198885262012, 0.0018622095230966806, 0.0018916407134383917, 0.0017895207274705172, 0.0017106356099247932, 0.0017340386984869838, 0.0017209076322615147, 0.001783473533578217, 0.0019633150659501553, } };
const TfLiteAffineQuantization quant5 = { (TfLiteFloatArray*)&quant5_scale, (TfLiteIntArray*)&g0::quant4_zero, 0 };
const MODEL_SECTION(EI_MODEL_SECTION) ALIGN(16) int32_t tensor_data6[96] = { -2217, 3923, 7763, 3018, -3730, -4107, 23532, 2576, 2855, -1775, 13274, -253, -9731, 1990, 13165, 8416, 15505, 6882, -3823, -5203, 4887, 43584, 18183, 17264, 1418, 875, 5576, 3609, 2617, -4327, 7012, -3544, -316, 5731, 87, 1265, 12284, 4372, -2139, 5469, 8631, 4947, 5135, 16194, 3523, 5435, 2103, 7422, 4594, -7497, -6544, 389, -235, -1516, 2207, -38, 220, -996, -4669, 11321, -914, 1769, -1230, -2151, -3578, 8391, 30677, 2169, -2696, 879, 1386, 2263, 2020, -930, 633, 9698, -323, 15085, 17658, -1095, 11316, 1783, -633, 1666, 15108, 8561, 5117, 1755, 6130, 4057, -429, -10042, 606, -2054, -1698, -2204, };
const TfArray<1, int> tensor_dimension6 = { 1, { 96 } };
const TfArray<96, float> quant6_scale = { 96, { 0.00027792889159172773, 0.00039460990228690207, 0.00030707553378306329, 0.00029133222415111959, 0.00028786540497094393, 0.00035784969804808497, 0.00014106530579738319, 0.00027244057855568826, 0.00021581011242233217, 0.00037269003223627806, 0.00015045920736156404, 0.00025047970120795071, 0.00026054258341901004, 0.0014193769311532378, 0.00023420075012836605, 0.0001398327003698796, 0.00012135798169765621, 0.00021106521307956427, 0.00051270215772092342, 0.00032465925323776901, 0.00012796644296031445, 6.212186417542398e-05, 0.00016878914902918041, 9.7154552349820733e-05, 0.0001422135392203927, 0.00056414550635963678, 0.00053345353808254004, 0.00030280349892564118, 0.00019941374193876982, 0.00045360845979303122, 0.0002103916194755584, 0.00021755028865300119, 0.00021126405044924468, 0.0002032285847235471, 0.00028756351093761623, 0.00020256527932360768, 0.00015577972226310521, 0.00024704029783606529, 0.00028336013201624155, 0.00032295260461978614, 0.00014577289402950555, 0.00052334589418023825, 0.00029752805130556226, 0.00014303659554570913, 0.00054748833645135164, 0.00018508970970287919, 0.00024659797782078385, 0.00028910464607179165, 0.00029341795016080141, 0.00017734467110130936, 0.00024213542928919196, 0.00020004966063424945, 0.00065555743640288711, 0.00019971409346908331, 0.00035382175701670349, 0.00037537305615842342, 0.0005021587130613625, 0.00025696944794617593, 0.00032666910556145012, 0.00016190145106520504, 0.00080083595821633935, 0.00036164015182293952, 0.00022132016601972282, 0.00036563837784342468, 0.00052557146409526467, 0.00022821167658548802, 7.0786481956019998e-05, 0.000184975317097269, 0.0004338135477155447, 0.00037328962935134768, 0.00029402636573649943, 0.00022871594410389662, 0.0006597667234018445, 0.00044669333146885037, 0.00028479148750193417, 0.00022072417777962983, 0.00032324399217031896, 0.00012468799832277, 0.0001037098336382769, 0.00018180326151195914, 0.00012978698941878974, 0.00017527025192975998, 0.00014979109982959926, 0.00013920335914008319, 0.00012093432451365516, 0.00027840767870657146, 0.00045954607776366174, 0.0001624497672310099, 0.00011750346311600879, 0.00050511129666119814, 0.00024176872102543712, 0.00019830148085020483, 0.00035434597521089017, 0.00049789674812927842, 0.00037479301681742072, 0.000185950513696298, } };
const TfArray<96, int> quant6_zero = { 96, { 0,0,0,0,0,0,0,0,0,0,0,0,0,0,0,0,0,0,0,0,0,0,0,0,0,0,0,0,0,0,0,0,0,0,0,0,0,0,0,0,0,0,0,0,0,0,0,0,0,0,0,0,0,0,0,0,0,0,0,0,0,0,0,0,0,0,0,0,0,0,0,0,0,0,0,0,0,0,0,0,0,0,0,0,0,0,0,0,0,0,0,0,0,0,0,0 } };
const TfLiteAffineQuantization quant6 = { (TfLiteFloatArray*)&quant6_scale, (TfLiteIntArray*)&quant6_zero, 0 };
const MODEL_SECTION(EI_MODEL_SECTION) ALIGN(16) int8_t tensor_data7[96*1*1*16] = { 
  /* [0][0][][] */ -21,103,-4,-127,-54,-40,-37,-75,-14,10,-7,87,11,-55,-9,60, 
  /* [1][0][][] */ -34,15,-55,0,-23,-23,25,-75,53,57,-59,12,5,-2,35,-127, 
  /* [2][0][][] */ -3,13,-45,29,32,16,-47,-76,127,-41,2,18,-14,88,-58,31, 
  /* [3][0][][] */ 39,-87,9,-115,18,-26,-11,6,127,12,87,46,9,40,4,125, 
  /* [4][0][][] */ -79,44,21,54,20,-17,-2,34,-1,22,11,-36,-127,-35,-29,20, 
  /* [5][0][][] */ 10,63,116,-1,27,76,-83,73,-64,83,-33,-40,35,-52,-127,27, 
  /* [6][0][][] */ 47,-65,127,-124,46,-8,-49,92,-83,-95,48,-42,1,83,-28,78, 
  /* [7][0][][] */ 30,120,-32,-49,82,18,9,-44,127,85,-21,25,29,-18,66,44, 
  /* [8][0][][] */ 17,-77,11,-84,18,-59,13,-76,20,54,63,-12,10,127,76,64, 
  /* [9][0][][] */ 7,-30,-5,127,37,-8,40,-54,-62,108,30,-19,0,-56,-13,-8, 
  /* [10][0][][] */ -7,34,-62,-127,4,-1,-12,34,40,-43,21,-23,-26,-41,2,40, 
  /* [11][0][][] */ 7,13,24,-24,84,-36,83,-64,-92,44,-7,26,5,127,-71,-25, 
  /* [12][0][][] */ 81,-18,-124,-8,40,-81,15,14,3,76,-100,-65,-47,127,-15,22, 
  /* [13][0][][] */ -14,8,-22,13,5,-127,-4,20,3,-10,6,-2,12,-12,7,10, 
  /* [14][0][][] */ 18,-25,103,-23,59,13,-127,-87,-12,-50,36,25,7,-57,-21,-40, 
  /* [15][0][][] */ -80,5,-27,-61,-6,-9,127,50,-42,43,70,-27,27,89,72,10, 
  /* [16][0][][] */ 25,54,127,87,7,10,84,68,-102,20,-82,-16,21,5,13,-73, 
  /* [17][0][][] */ -35,-109,-17,28,-76,-27,-63,10,-127,-34,9,-45,-4,45,64,-35, 
  /* [18][0][][] */ -2,44,2,69,39,11,24,1,76,37,-23,-25,14,127,59,21, 
  /* [19][0][][] */ 19,-30,34,7,100,11,-87,-54,-105,-67,-44,-127,-30,-36,-4,-34, 
  /* [20][0][][] */ 108,-13,-47,-29,10,-107,10,18,-43,30,-127,-27,5,21,14,10, 
  /* [21][0][][] */ 68,-16,69,-24,-31,12,4,100,8,-127,101,54,3,123,70,98, 
  /* [22][0][][] */ -11,58,-45,127,-62,-1,89,46,-5,27,-20,43,-18,17,31,9, 
  /* [23][0][][] */ 83,6,101,-85,54,-13,-7,48,5,20,-5,-32,-12,-20,-127,21, 
  /* [24][0][][] */ -127,32,15,-17,3,109,22,-18,-5,19,104,-5,-73,16,60,-30, 
  /* [25][0][][] */ 31,25,11,22,13,6,66,-55,-6,-127,-17,-22,-16,-31,8,23, 
  /* [26][0][][] */ -40,-1,-5,12,-51,-6,-39,-32,-104,-38,4,-32,11,127,-34,48, 
  /* [27][0][][] */ -2,29,11,64,40,-33,-20,-36,54,9,-29,-4,7,127,-12,17, 
  /* [28][0][][] */ 14,63,60,52,127,-9,32,37,-93,-17,-50,-38,25,92,46,-35, 
  /* [29][0][][] */ 5,-7,5,11,23,-5,11,32,-24,-7,-19,-127,1,-15,-14,7, 
  /* [30][0][][] */ -25,84,-52,79,-42,-14,45,-127,-42,57,-15,0,57,39,80,79, 
  /* [31][0][][] */ -45,-27,-19,-81,-13,5,-46,-112,27,74,-6,-127,-22,-56,11,29, 
  /* [32][0][][] */ -127,-86,-7,63,58,34,-16,7,-7,-42,-110,43,84,3,60,74, 
  /* [33][0][][] */ -5,-31,-43,-10,-93,-16,-89,-8,61,17,8,-55,20,-121,127,39, 
  /* [34][0][][] */ 51,-4,59,21,41,13,-49,75,-81,-50,61,22,13,-9,-13,127, 
  /* [35][0][][] */ -37,58,-71,15,-7,-27,26,-127,84,101,-92,-3,0,-8,78,-124, 
  /* [36][0][][] */ -26,46,24,120,51,18,127,16,-23,55,-38,-23,-26,14,-78,-47, 
  /* [37][0][][] */ 11,-13,18,-62,6,-7,-39,-38,-82,-5,-4,-15,1,-127,53,-40, 
  /* [38][0][][] */ 45,84,-5,-46,127,-5,25,-40,105,76,-20,-7,8,-31,40,11, 
  /* [39][0][][] */ -33,77,-13,-127,-20,13,-45,36,54,-83,-26,-16,1,82,46,32, 
  /* [40][0][][] */ -5,-25,26,-91,5,1,1,-15,-127,0,-5,-30,-4,-124,89,-77, 
  /* [41][0][][] */ -6,-6,-39,-14,7,-30,20,-11,-29,14,-50,-10,-127,9,21,32, 
  /* [42][0][][] */ 127,92,-36,-20,-82,-57,-22,-62,10,17,86,-46,-61,55,103,-107, 
  /* [43][0][][] */ -24,123,-88,2,53,-9,125,-30,67,77,-35,8,34,-127,-67,-58, 
  /* [44][0][][] */ -16,-4,15,-36,59,-3,-88,-127,-24,-1,5,-2,-12,-34,57,-59, 
  /* [45][0][][] */ -18,38,-127,-41,16,-59,29,-65,17,20,12,-63,32,-24,56,-20, 
  /* [46][0][][] */ 12,5,-25,-94,-18,8,18,-39,-118,-27,9,18,-13,-127,72,-29, 
  /* [47][0][][] */ 18,55,22,-16,127,-11,-24,17,-51,38,2,24,0,4,117,-25, 
  /* [48][0][][] */ -127,-86,-17,38,72,12,11,-17,-8,-13,-117,37,64,3,76,48, 
  /* [49][0][][] */ 7,19,104,86,120,6,54,38,-114,-57,-29,-71,8,127,19,-66, 
  /* [50][0][][] */ 23,-22,-93,-15,24,-127,-35,-3,-17,-27,1,-38,41,-15,-5,11, 
  /* [51][0][][] */ 6,40,33,11,25,3,-3,30,-127,51,8,-109,19,-113,-18,97, 
  /* [52][0][][] */ -4,46,4,55,44,6,21,40,69,76,-21,-44,43,127,61,18, 
  /* [53][0][][] */ -1,-46,-19,-19,-86,-13,-82,-5,45,21,11,-60,27,-127,117,23, 
  /* [54][0][][] */ 49,-11,-47,17,127,85,-126,-53,-75,-12,-31,-70,-4,-51,-21,-46, 
  /* [55][0][][] */ 39,-14,1,2,34,-34,-69,-127,-29,-73,-50,14,-2,-32,24,-12, 
  /* [56][0][][] */ -14,11,26,-24,-4,-28,-93,63,-13,127,-6,-18,25,2,-8,9, 
  /* [57][0][][] */ 4,21,-57,-22,-63,-57,124,88,-24,24,-23,3,27,27,127,-4, 
  /* [58][0][][] */ 44,24,-127,35,92,105,-35,61,-113,-37,-2,7,-35,34,-4,-31, 
  /* [59][0][][] */ -98,65,112,24,-70,-59,126,127,16,11,26,-21,13,8,67,-4, 
  /* [60][0][][] */ 13,4,-50,-2,14,-127,-25,-4,-8,-21,-10,-22,21,-9,5,14, 
  /* [61][0][][] */ 17,-6,22,127,73,24,30,10,-93,-5,19,45,-13,24,38,-53, 
  /* [62][0][][] */ -42,127,18,-49,-27,-15,-76,54,-27,-60,-92,-61,-5,-94,-57,-33, 
  /* [63][0][][] */ -41,31,-30,127,-84,10,-73,-35,-63,-27,-28,-37,22,71,39,46, 
  /* [64][0][][] */ 6,6,-1,45,0,14,-9,67,31,-1,-12,-40,-7,-127,55,-6, 
  /* [65][0][][] */ -22,-42,2,-127,37,-26,67,-35,-3,41,15,-101,-9,2,25,-43, 
  /* [66][0][][] */ 21,-39,77,-19,13,15,-4,124,3,-67,63,28,12,127,12,67, 
  /* [67][0][][] */ 0,64,-21,-127,-20,-1,-61,37,92,-110,-32,-2,24,90,76,41, 
  /* [68][0][][] */ -35,41,127,17,7,9,-1,5,-35,-24,-14,-30,15,-15,91,-34, 
  /* [69][0][][] */ 127,83,-24,-6,-97,-36,-25,-45,12,13,97,-51,-63,67,76,-92, 
  /* [70][0][][] */ 49,11,-63,-13,-33,22,56,127,-38,93,-46,1,4,72,-24,26, 
  /* [71][0][][] */ 12,-5,-3,12,6,-80,1,26,-42,21,-86,1,-127,-2,40,48, 
  /* [72][0][][] */ 4,19,-127,21,17,24,37,105,-40,-20,16,-9,19,11,-7,-3, 
  /* [73][0][][] */ -41,29,37,4,42,-35,-75,-127,21,-73,33,-13,11,-40,39,-13, 
  /* [74][0][][] */ 6,31,46,127,25,-12,-89,84,-78,23,-57,40,24,-125,33,-95, 
  /* [75][0][][] */ -6,33,-46,21,22,-9,20,-9,118,33,-18,-11,9,127,-49,-6, 
  /* [76][0][][] */ 1,-15,0,15,3,-16,-13,61,12,-29,-20,-127,0,-10,8,10, 
  /* [77][0][][] */ -2,39,-8,127,-43,11,75,76,3,44,-16,27,-28,-14,-16,0, 
  /* [78][0][][] */ 16,9,37,-127,57,-45,-46,32,15,-43,-3,-50,17,124,12,59, 
  /* [79][0][][] */ -15,-93,-74,-60,-90,-5,23,-75,127,13,37,64,14,46,53,-47, 
  /* [80][0][][] */ -38,3,114,-113,3,-58,18,-127,-62,39,-48,-111,22,123,109,-35, 
  /* [81][0][][] */ -44,51,-127,27,76,-126,-11,55,-5,-48,64,-6,24,7,11,-1, 
  /* [82][0][][] */ 127,-11,-9,13,9,-114,-24,20,-13,-14,-94,1,106,9,-1,29, 
  /* [83][0][][] */ -44,81,-127,-91,-42,-12,51,-123,75,46,-40,-120,18,59,59,112, 
  /* [84][0][][] */ -30,36,85,-31,14,-32,63,-127,-54,61,-21,-75,26,61,63,-11, 
  /* [85][0][][] */ -80,127,30,-120,-74,-35,-30,-6,-61,-2,-75,20,6,-10,-98,-22, 
  /* [86][0][][] */ -6,13,-41,-1,-36,-32,127,20,4,-32,-1,14,1,33,87,-15, 
  /* [87][0][][] */ -28,-41,-2,-127,5,-32,57,-21,-1,14,-6,-124,-18,-1,15,-39, 
  /* [88][0][][] */ 95,-29,50,-4,26,-107,8,34,-61,47,-127,-62,34,31,65,-7, 
  /* [89][0][][] */ 24,-30,-36,-49,32,-7,-26,0,-55,11,31,-74,127,-8,25,-50, 
  /* [90][0][][] */ -8,-45,35,-59,62,3,-61,94,64,-90,-32,-21,-11,121,24,-127, 
  /* [91][0][][] */ -52,-8,-30,-48,14,-11,-26,-107,15,59,-3,-127,-33,-21,9,15, 
  /* [92][0][][] */ -22,25,36,14,-3,-127,13,0,3,-26,2,-12,1,-20,21,9, 
  /* [93][0][][] */ 40,-25,127,-17,-49,56,33,-28,-25,29,-73,-23,-20,-5,29,0, 
  /* [94][0][][] */ 23,0,-17,-25,22,-3,-12,-1,-27,-22,18,-52,127,-15,33,-27, 
  /* [95][0][][] */ 127,98,-1,33,-91,-15,-57,-6,-30,-16,80,-49,-55,29,72,-71, 
};
const TfArray<4, int> tensor_dimension7 = { 4, { 96,1,1,16 } };
const TfArray<96, float> quant7_scale = { 96, { 0.00077704829163849354, 0.0011032712645828724, 0.00085853802738711238, 0.00081452203448861837, 0.00080482935300096869, 0.0010004951618611813, 0.00039439785177819431, 0.000761703762691468, 0.00060337333707138896, 0.0010419865138828754, 0.00042066181777045131, 0.00070030440110713243, 0.00072843872476369143, 0.0039683692157268524, 0.00065479084150865674, 0.00039095166721381247, 0.0003392990620341152, 0.00059010728728026152, 0.0014334397856146097, 0.00090769951930269599, 0.00035777536686509848, 0.00017368359840475023, 0.00047190964687615633, 0.00027162983315065503, 0.00039760814979672432, 0.0015772678889334202, 0.0014914575731381774, 0.00084659404819831252, 0.00055753148626536131, 0.0012682225788012147, 0.00058822403661906719, 0.00060823862440884113, 0.00059066322864964604, 0.00056819722522050142, 0.0008039852837100625, 0.00056634272914379835, 0.0004355371929705143, 0.00069068832090124488, 0.00079223327338695526, 0.00090292800450697541, 0.00040755956433713436, 0.0014631982194259763, 0.00083184469258412719, 0.00039990927325561643, 0.0015306968707591295, 0.0005174836260266602, 0.00068945169914513826, 0.00080829410580918193, 0.00082035345258191228, 0.00049582961946725845, 0.00067697506165131927, 0.00055930943926796317, 0.0018328422447666526, 0.0005583712481893599, 0.00098923360928893089, 0.0010494878515601158, 0.0014039619127288461, 0.00071844877675175667, 0.00091331877047196031, 0.00045265266089700162, 0.0022390196099877357, 0.0010110926814377308, 0.00061877863481640816, 0.0010222711134701967, 0.0014694205019623041, 0.00063804630190134048, 0.00019790859369095415, 0.0005171637749299407, 0.0012128788512200117, 0.0010436628945171833, 0.00082205445505678654, 0.00063945614965632558, 0.0018446106696501374, 0.0012488889042288065, 0.00079623510828241706, 0.00061711232410743833, 0.0009037426789291203, 0.00034860929008573294, 0.00028995744651183486, 0.00050829519750550389, 0.00036286533577367663, 0.00049002986634150147, 0.00041879390482790768, 0.00038919213693588972, 0.00033811459434218705, 0.00077838689321652055, 0.0012848232872784138, 0.00045418564695864916, 0.00032852240838110447, 0.001412216923199594, 0.00067594979191198945, 0.00055442180018872023, 0.000990699278190732, 0.0013920461060479283, 0.0010478661861270666, 0.00051989027997478843, } };
const TfLiteAffineQuantization quant7 = { (TfLiteFloatArray*)&quant7_scale, (TfLiteIntArray*)&g0::quant6_zero, 0 };
const MODEL_SECTION(EI_MODEL_SECTION) ALIGN(16) int32_t tensor_data8[16] = { -9331, 21229, -21949, -4962, -12267, 7282, 27064, -53529, -1992, 17238, 23445, 15378, -11353, 17322, -5007, 11660, };
const TfArray<1, int> tensor_dimension8 = { 1, { 16 } };
const TfArray<16, float> quant8_scale = { 16, { 0.0007640528492629528, 0.00042278057662770152, 0.00021378070232458413, 0.00022131268633529544, 0.00042243170901201665, 0.00036162606556899846, 0.00035523533006198704, 0.00025021430337801576, 0.00029441009974107146, 0.0002736077003646642, 0.00069106678711250424, 0.00062816613353788853, 0.00051007088040933013, 0.00021561208995990455, 0.00059316738042980433, 0.00056313397362828255, } };
const TfArray<16, int> quant8_zero = { 16, { 0,0,0,0,0,0,0,0,0,0,0,0,0,0,0,0 } };
const TfLiteAffineQuantization quant8 = { (TfLiteFloatArray*)&quant8_scale, (TfLiteIntArray*)&quant8_zero, 0 };
const MODEL_SECTION(EI_MODEL_SECTION) ALIGN(16) int8_t tensor_data9[16*1*1*96] = { 
  /* [0][0][][] */ -20,-10,-1,-38,14,-11,-43,2,19,1,-14,2,-3,-8,-24,9,0,6,-6,-5,13,-30,2,8,7,16,2,127,37,-33,41,-5,-4,5,10,4,-14,15,-44,-6,-9,8,-1,35,3,12,15,8,18,4,-5,9,15,-19,-14,82,6,12,-32,-35,-7,22,-4,-30,-46,-65,-18,36,5,16,22,-18,-7,-32,0,-27,-29,22,0,8,-8,-33,24,22,0,-8,-6,-104,-2,-12,5,-3,51,-37,-43,-7, 
  /* [1][0][][] */ 33,-66,-78,-67,127,-21,63,42,-31,-104,-65,-23,15,-7,-58,40,-72,3,57,39,26,48,-20,-57,9,-6,-17,-83,45,-13,-70,44,-27,27,16,-11,-2,-10,-7,19,-28,31,-51,-26,-47,89,9,16,21,-75,20,-46,-26,30,49,12,-65,-24,-47,-44,20,-18,-5,-54,-100,108,-20,-25,-12,-15,-13,20,43,-107,-24,2,36,-46,42,6,14,-29,37,-1,-47,24,-23,19,26,-40,-5,2,35,3,23,118, 
  /* [2][0][][] */ 0,51,-93,-2,99,85,34,72,4,-95,-1,-10,-18,-1,23,20,15,-12,-53,72,20,-9,78,21,47,25,-4,-27,25,-20,56,-66,28,46,-37,46,-127,-79,39,27,2,-42,22,-13,22,-25,9,66,-21,17,-34,-1,82,-2,-11,57,43,9,30,8,24,27,37,-18,27,-1,-45,2,-42,-13,-19,-40,-38,-83,12,64,69,42,33,-9,34,-45,5,-9,-47,40,19,47,-25,31,6,-27,-1,-26,-55,-14, 
  /* [3][0][][] */ 62,10,102,2,61,-26,19,-16,-11,-59,24,-33,-17,39,36,102,25,3,28,10,127,-20,47,16,53,-26,-12,34,26,38,-10,82,-106,26,19,1,-8,-18,3,47,-85,-33,87,21,23,51,-42,-92,-53,-39,-66,51,6,-119,11,21,-109,71,65,40,11,99,-9,-45,47,72,-17,-46,33,-41,-5,-71,56,-45,50,-12,16,-8,57,51,-20,-64,18,-14,-35,23,21,54,36,9,23,35,34,118,54,-49, 
  /* [4][0][][] */ 16,-12,16,-4,127,32,-9,-17,-28,-38,-31,-28,-53,26,-6,54,24,-69,-41,79,-20,0,22,-18,7,-9,11,-31,10,-8,57,-30,83,18,-26,17,44,21,16,4,-22,-2,-20,-23,0,-42,-9,4,40,4,-24,16,0,-27,11,-28,32,-8,-27,31,2,50,54,29,45,48,-24,-6,-39,-7,36,53,22,-67,-35,-20,22,31,71,-25,-9,-31,-4,-3,-60,15,42,52,-42,35,4,-35,9,15,31,-29, 
  /* [5][0][][] */ 7,-21,-20,16,31,-20,33,-19,-14,-33,-8,6,-10,30,-2,16,-6,2,7,-2,25,4,-43,63,10,-3,10,-90,-13,32,19,33,2,9,-2,-52,31,27,-4,10,-5,-1,30,-17,0,7,5,-26,-12,-21,4,-6,-6,-20,-10,-53,2,20,-20,22,70,18,-2,40,3,60,-3,70,3,79,7,23,18,14,0,69,-33,-5,11,14,-10,-8,-8,24,-7,20,-5,127,3,31,1,-8,5,21,-51,8, 
  /* [6][0][][] */ 20,-70,13,-41,-31,5,28,29,-3,-9,-7,-72,-28,2,-29,33,18,-12,-5,-10,-39,40,6,16,-19,8,-19,-18,-14,18,37,3,65,0,65,-4,-8,-11,11,-96,-18,86,4,-38,14,-26,-18,20,-11,40,-22,66,-21,-57,-15,-14,6,-58,-8,6,-12,53,38,-82,24,-22,10,-24,-10,8,127,-2,-34,10,-26,30,-85,-1,10,7,33,43,15,-4,-17,2,45,25,6,14,46,-31,-14,-13,-35,-9, 
  /* [7][0][][] */ 9,127,53,21,121,59,49,-35,-31,-32,36,-13,-31,26,17,26,10,-46,10,34,34,-35,44,7,-8,9,18,19,17,-24,12,14,38,-11,-57,2,17,7,1,86,-49,25,18,24,-11,-23,29,-20,-30,-29,30,2,25,-47,-32,54,42,-5,-22,-7,-10,-41,-4,-2,-50,71,-42,-90,-6,-45,-9,72,-20,-32,11,10,63,53,49,-19,-50,-39,-4,-12,-23,54,-14,-7,-30,25,-34,-43,-49,-10,21,-7, 
  /* [8][0][][] */ -5,-5,48,14,-127,-37,42,-11,32,86,64,6,-13,18,27,2,-53,15,8,4,-41,-9,-113,70,7,-36,58,-16,4,17,-1,57,83,-15,4,1,-22,-18,-1,39,10,-22,37,11,-40,-5,34,2,-105,11,23,30,-59,-33,-40,40,17,-44,-89,-12,17,-28,-33,-4,6,77,-3,-55,15,-12,-43,-28,44,60,61,-7,-28,-36,-22,27,-88,7,-24,-4,30,16,72,47,28,-33,46,51,5,-13,47,20, 
  /* [9][0][][] */ 13,-109,-10,31,83,89,-27,-30,29,-31,84,82,-28,6,82,-91,12,-29,0,19,-56,-48,38,-15,-17,-1,1,35,-35,0,10,-24,9,13,-114,23,-5,9,-6,58,26,-66,-12,63,1,-9,-66,-33,38,23,-18,-82,55,33,-8,-47,-8,75,-13,3,18,-46,-33,127,-72,-15,-10,-17,0,18,-63,-69,42,-3,-7,23,57,-71,29,7,-9,-21,12,20,-11,-54,14,-2,16,-42,-45,30,-55,2,2,-53, 
  /* [10][0][][] */ -47,-17,-35,-50,-28,-11,59,-17,34,16,23,34,29,-7,-3,-4,-7,22,-30,-22,0,32,12,21,-8,-7,7,-127,30,-39,50,-29,5,18,0,-6,-2,33,-3,-6,12,-28,19,-51,11,-7,26,16,-10,38,-24,-13,-35,-22,-8,-55,20,17,-8,-37,20,8,-3,5,-38,84,-11,-32,11,-23,3,-21,-27,-2,26,49,-10,43,-24,17,-18,-7,2,26,13,-15,-4,112,-9,1,6,17,18,-45,41,-29, 
  /* [11][0][][] */ -81,15,-3,-7,22,-62,-11,6,-52,-4,0,18,28,26,-29,-12,54,0,-62,-47,18,-4,-6,-4,76,9,66,0,-20,29,-37,20,3,22,-12,-9,-10,3,24,16,-21,-9,8,10,82,19,78,15,48,42,-8,40,15,-68,26,-4,-68,-20,-33,-47,-1,-10,4,24,-1,-28,27,6,21,17,-10,31,-27,9,33,-3,-16,84,-127,74,-37,-5,-66,-68,125,17,38,-6,8,53,-35,-59,-22,45,-29,-6, 
  /* [12][0][][] */ -6,-13,-39,7,64,22,-5,-16,-8,23,18,-3,-1,-12,25,-4,-30,-7,6,-11,-11,-21,-30,39,-13,34,-16,93,-13,29,-29,2,-13,31,1,29,-13,-10,23,8,1,-11,-4,7,-16,3,19,18,0,-7,-4,-22,-13,14,-6,-16,-3,-12,17,19,-11,-15,-2,51,45,-71,7,48,-24,-127,-10,44,9,4,12,71,0,-20,-7,-1,-8,23,-42,7,12,-8,3,-40,-1,15,5,3,-35,40,-8,16, 
  /* [13][0][][] */ -78,71,2,-7,-74,16,-9,19,-55,-36,41,24,102,8,-21,-6,-21,22,-35,-3,21,-7,70,-61,63,39,0,2,14,-39,-41,-112,-112,-44,10,-1,-14,18,46,-13,-46,83,-11,18,51,4,-26,11,61,-13,37,68,78,-82,85,-8,-36,59,48,-6,15,40,-19,21,2,-36,10,12,16,35,30,-127,2,-25,-88,6,68,38,-44,-58,91,-26,11,-33,34,-38,86,-7,-33,-13,-28,20,38,-40,-30,19, 
  /* [14][0][][] */ -35,24,-17,-54,25,-5,-14,30,-92,-7,18,10,-17,-56,-74,-22,-80,-18,69,5,35,2,12,-99,-36,18,-52,-24,19,-15,-10,-25,-66,-35,30,10,-21,-4,3,-4,8,77,-77,-16,-54,18,10,16,127,-20,33,-12,27,51,-106,16,-22,25,-96,7,6,27,39,23,-1,30,8,1,-50,32,65,33,29,-7,-23,25,49,-69,-32,-98,17,-25,12,38,36,-66,-41,6,-40,28,29,52,15,30,14,-3, 
  /* [15][0][][] */ -34,-69,-3,-44,-1,13,-1,-64,-28,11,-2,-29,47,-18,49,-22,-90,-9,-10,11,-12,6,-62,-37,-17,2,-6,11,-20,-9,57,-92,-9,21,27,0,-12,18,-98,8,28,-72,-6,32,-24,-51,50,35,39,20,-5,-127,-3,37,-4,44,29,-7,-24,36,0,2,37,-6,4,-15,-6,-10,-26,31,11,43,-47,10,-4,-34,-23,-3,10,7,-4,34,0,64,-14,-48,-38,-38,-41,50,30,73,-30,-11,-7,-4, 
};
const TfArray<4, int> tensor_dimension9 = { 4, { 16,1,1,96 } };
const TfArray<16, float> quant9_scale = { 16, { 0.032472245395183563, 0.017968174070119858, 0.0090856794267892838, 0.009405788965523243, 0.017953347414731979, 0.015369107015430927, 0.015097500756382942, 0.010634107515215874, 0.012512428686022758, 0.011628326959908009, 0.029370337724685669, 0.026697060093283653, 0.021678011864423752, 0.0091635137796401978, 0.025209613144397736, 0.023933194577693939, } };
const TfLiteAffineQuantization quant9 = { (TfLiteFloatArray*)&quant9_scale, (TfLiteIntArray*)&g0::quant8_zero, 0 };
const MODEL_SECTION(EI_MODEL_SECTION) ALIGN(16) int32_t tensor_data10[96] = { 25452, 57524, -778, 451, 13505, -5796, 154, 705, 5798, 14320, -4187, -69, 213, 4016, 5243, -9084, -4100, -879, -85, 14956, -10071, 13381, -2013, 7368, 25893, -122, -6819, 16162, 13062, -19280, 1919, 22356, 24824, -8988, 2080, 396, -889, -986, 4458, -7894, -5669, -1023, -9220, 521, 29532, -968, 12533, -1572, -14933, 1559, 203, 667, -2602, 23597, -2958, 12726, 23643, -69, 32870, -678, -9965, -1083, 953, 171, -691, 13106, -1608, -6630, -4482, 3096, 76, -2989, 2024, 515, -1565, -4767, -610, -1533, 46151, -7831, -5786, -11760, -208, 681, 60150, -12895, -10688, -27070, -7183, 8779, -2943, 33596, -366, -1424, -3317, 1009, };
const TfArray<96, float> quant10_scale = { 96, { 8.8929300545714796e-05, 9.8312026239000261e-05, 0.00011008957517333329, 0.0002056469238596037, 0.00025633591576479375, 0.00013502109504770488, 5.1175426051486284e-05, 7.3394287028349936e-05, 0.00023653605603612959, 0.00016856211004778743, 0.00024588833912275732, 0.00010069149720948189, 0.0002331832074560225, 0.00019405972852837294, 0.00038421881617978215, 0.00016841517935972661, 0.00021177095186430961, 0.00015654967864975333, 0.00018644561350811273, 7.4773495725821704e-05, 8.5235340520739555e-05, 4.7821147745708004e-05, 0.0001268959604203701, 0.00010105087130796164, 9.5670548034831882e-05, 8.6653308244422078e-05, 0.00015237962361425161, 0.00019217675435356796, 7.1463895437773317e-05, 0.00048481929115951061, 0.00036746700061485171, 0.0002585641632322222, 0.00012966508802492172, 0.0001786638458725065, 0.00023582164430990815, 0.00045825273264199495, 0.00034947347012348473, 0.00019264346337877214, 0.00022127789270598441, 8.665212953928858e-05, 0.00020005398255307227, 0.00020494025375228375, 0.00033719063503667712, 7.0364716520998627e-05, 0.00037362260627560318, 9.0340705355629325e-05, 0.00010710836795624346, 0.00028056462178938091, 0.00066572788637131453, 8.5665764345321804e-05, 0.00036161253228783607, 0.00016293588851112872, 0.00021089431538712233, 0.00011457050277385861, 0.00029390773852355778, 0.00013783022586721927, 0.00011510377953527495, 0.00040360895218327641, 4.4906922994414344e-05, 0.00017064636631403118, 0.00026672030799090862, 0.0002881745167542249, 8.6072141129989177e-05, 0.00015163708303589374, 0.00013652585039380938, 0.00013395401765592396, 0.00027009213226847351, 0.00033383024856448174, 0.00017347793618682772, 0.00012565898941829801, 0.00017371578724123538, 0.00010293231753166765, 0.00034854785189963877, 0.00012796281953342259, 0.00045631494140252471, 0.00039372799801640213, 0.00012850684288423508, 8.2133898104075342e-05, 5.6091259466484189e-05, 0.00015725083358120173, 0.00023482332471758127, 0.00022632666514255106, 0.00015541283937636763, 0.00023717168369330466, 5.930055704084225e-05, 0.00012610470002982765, 7.499294588342309e-05, 0.00049449020298197865, 0.00025079751503653824, 0.00011254010314587504, 0.00032124054268933833, 3.3803920814534649e-05, 0.0001318894064752385, 0.00010394812852609903, 0.0003187463735230267, 0.00030389733728952706, } };
const TfLiteAffineQuantization quant10 = { (TfLiteFloatArray*)&quant10_scale, (TfLiteIntArray*)&g0::quant6_zero, 0 };
const MODEL_SECTION(EI_MODEL_SECTION) ALIGN(16) int8_t tensor_data11[1*3*3*96] = { 
  /* [0][0][][] */ -46,-72,-11,127,22,70,73,-59,-16,-17,-15,-4,-28,1,37,1,-9,-44,26,21,19,-127,127,5,-84,6,49,-28,-125,-127,38,24,13,25,61,-19,-29,-11,30,-6,-13,28,-106,71,26,-69,37,45,-18,53,-23,18,2,-5,15,48,-90,-49,-58,-18,-10,1,10,38,67,-25,75,13,-8,17,19,127,22,23,28,-1,-10,17,127,-6,-14,14,-28,20,126,19,-77,-17,0,-31,-15,-39,1,-24,-16,27, 127,-127,74,105,-43,127,38,-120,68,5,-17,127,127,-97,-13,15,12,127,127,-112,127,-78,81,66,-127,-119,-66,-34,-54,47,-60,-20,-88,53,-127,-85,-43,-15,-53,64,-1,127,127,82,-51,-113,-113,-51,-16,-127,44,83,65,-31,43,83,-47,42,-77,-112,-43,-41,-62,67,73,-62,27,30,-81,32,-17,90,115,127,14,19,2,58,-34,53,66,127,127,-23,-10,73,-112,127,-122,-99,4,-127,-90,-127,-39,106, -74,-12,29,-84,15,-25,63,-9,79,-34,-28,18,-18,-4,-9,-12,-9,-15,7,-4,-23,-105,30,-1,-121,96,8,-55,119,50,-15,9,2,14,13,-30,-9,34,19,13,24,12,-115,62,19,-19,36,13,-15,11,-16,5,-11,2,-3,19,-65,6,-31,52,3,41,32,0,-7,-39,-31,24,10,1,-3,35,9,-25,-6,3,-11,-6,-83,2,-21,-22,-18,2,-111,9,-32,-23,-51,24,-25,-31,30,-25,-15,2, 
  /* [0][1][][] */ -64,-76,73,-37,-48,91,19,127,-52,-21,-1,-118,26,-115,78,30,-3,-59,-17,89,51,-72,47,48,-96,-14,127,-22,-23,64,122,-104,-127,89,-86,-57,-35,31,-30,94,-48,-26,-6,45,-47,127,-22,66,16,96,18,-3,14,-55,26,31,127,122,-70,-84,127,-32,-35,127,70,-38,-15,-1,127,40,127,98,-41,103,-6,11,15,12,-31,10,-43,121,-80,110,1,33,-56,30,78,-127,-32,-9,127,-69,-23,0, 67,126,56,-117,127,84,90,38,-127,127,127,-38,-63,-127,-127,127,127,-62,-124,-50,101,94,-122,127,-106,-94,-43,127,-127,109,-127,-127,-89,127,106,127,127,-127,-106,127,-65,-97,109,-127,-127,-35,-127,-127,127,-112,84,42,127,127,127,-127,100,-127,-127,127,19,-79,-127,-98,-127,127,-127,127,-125,-127,-106,-84,-127,-78,127,127,-127,127,-78,127,127,29,-42,-127,58,127,94,46,127,12,127,1,-67,35,127,-127, -54,-14,-50,38,-56,-95,35,-28,18,-34,-29,93,2,93,14,10,-5,65,-7,127,0,-88,-41,5,-69,106,-70,-20,-71,-17,17,-63,-70,38,5,-18,-28,45,-68,41,127,-5,-38,28,-39,-60,17,46,8,118,-12,7,-36,-73,3,18,96,2,2,21,-34,127,91,-51,-43,12,37,-10,-77,123,-18,-87,-1,-53,-18,-20,27,15,76,-35,-71,-42,56,14,-48,-16,73,22,14,61,-43,19,-42,98,-27,-5, 
  /* [0][2][][] */ -67,0,-4,-22,13,-46,65,23,55,-28,-37,-3,19,18,-26,0,-6,66,8,1,-55,-82,2,-10,-25,-55,35,-69,91,38,25,26,15,-9,-10,-47,-6,36,-4,-1,-15,-6,-68,104,4,31,12,38,-15,-32,9,-21,19,-1,8,15,-69,25,-13,13,15,1,-22,-4,-1,-47,-46,14,-33,13,26,29,12,-19,29,4,17,4,-78,-11,-9,-9,16,14,-127,6,12,-44,-61,-50,-28,-51,9,58,-19,-9, 120,33,-127,-37,-72,-27,37,29,-64,-28,-20,-108,-75,112,-13,36,2,-50,-10,-125,90,-50,-38,1,-104,127,-50,20,-35,-22,-9,-4,-63,15,28,4,-22,-27,127,53,12,-15,68,-35,-38,75,-67,-42,-33,-6,-127,-127,-51,-26,0,38,-63,-6,12,38,-8,-17,9,-47,-54,33,64,-22,115,109,-23,-71,10,-57,3,5,99,3,50,22,11,-96,-51,2,2,8,127,40,-63,37,-19,-113,41,80,-10,25, -54,12,-18,26,15,-66,-127,2,-10,-7,-17,5,15,-25,18,-2,-8,-17,5,17,-50,-71,14,0,19,-96,20,3,-50,-40,-7,16,42,-21,-5,-26,-35,3,42,-43,23,-3,-47,-35,3,64,24,17,-8,-5,8,-8,16,5,-5,-6,-60,-12,4,-37,-11,10,84,-11,33,-2,-2,28,1,6,-4,19,-18,16,-2,15,36,0,73,-11,3,-8,-8,-18,73,0,43,-39,58,39,-17,-56,-7,3,-15,-17, 
};
const TfArray<4, int> tensor_dimension11 = { 4, { 1,3,3,96 } };
const TfArray<96, float> quant11_scale = { 96, { 0.0037794951349496841, 0.0041782609187066555, 0.0046788067556917667, 0.0087399939075112343, 0.010894276201725006, 0.0057383966632187366, 0.0021749555598944426, 0.0031192570459097624, 0.010052782483398914, 0.0071638892404735088, 0.010450254194438457, 0.0042793885804712772, 0.0099102864041924477, 0.0082475384697318077, 0.016329299658536911, 0.0071576447226107121, 0.0090002650395035744, 0.0066533610224723816, 0.0079239383339881897, 0.003177873557433486, 0.0036225018557161093, 0.0020323987118899822, 0.0053930780850350857, 0.0042946618050336838, 0.0040659983642399311, 0.0036827654112130404, 0.0064761335961520672, 0.0081675117835402489, 0.003037215443328023, 0.020604819059371948, 0.015617347322404385, 0.010988976806402206, 0.0055107660591602325, 0.007593213114887476, 0.010022419504821301, 0.019475741311907768, 0.014852621592581272, 0.0081873470917344093, 0.0094043100252747536, 0.0036827153526246548, 0.0085022943094372749, 0.0087099606171250343, 0.014330601319670677, 0.0029905003029853106, 0.015878960490226746, 0.0038394799921661615, 0.0045521054416894913, 0.011923995800316334, 0.028293434530496597, 0.0036407948937267065, 0.01536853238940239, 0.0069247749634087086, 0.0089630084112286568, 0.0048692463897168636, 0.012491078115999699, 0.0058577847667038441, 0.0048919105902314186, 0.017153380438685417, 0.0019085442181676626, 0.0072524701245129108, 0.011335612274706364, 0.012247416190803051, 0.0036580658052116632, 0.0064445757307112217, 0.0058023487217724323, 0.0056930454447865486, 0.011478914879262447, 0.014187784865498543, 0.0073728123679757118, 0.0053405072540044785, 0.0073829209432005882, 0.0043746232986450195, 0.014813283458352089, 0.0054384199902415276, 0.019393384456634521, 0.016733439639210701, 0.0054615405388176441, 0.0034906906075775623, 0.0023838784545660019, 0.0066831600852310658, 0.0099799912422895432, 0.0096188830211758614, 0.0066050454042851925, 0.010079796425998211, 0.0025202736724168062, 0.0053594494238495827, 0.003187200054526329, 0.0210158322006464, 0.010658894665539265, 0.0047829542309045792, 0.013652722351253033, 0.0014366665855050087, 0.0056052994914352894, 0.0044177952222526073, 0.013546721078455448, 0.012915636412799358, } };
const TfLiteAffineQuantization quant11 = { (TfLiteFloatArray*)&quant11_scale, (TfLiteIntArray*)&g0::quant6_zero, 3 };
const MODEL_SECTION(EI_MODEL_SECTION) ALIGN(16) int32_t tensor_data12[96] = { 1716, 9771, 18415, 27677, 16338, -3482, -1390, 5661, 32786, -4959, 9394, 4067, 10512, 11547, 32353, 1622, 2325, 8820, 15842, 6530, -277, 480, 12081, -1114, 5052, 149, 12542, 7864, 8108, 37462, 54914, 16809, 7923, -671, 13940, 3036, 1369, 3317, 23524, -921, 12699, 9828, 39635, -3932, 23677, 9953, 6140, 15767, 67695, 11010, -500, 7781, -3328, -128, -2829, 7516, -519, 14763, 6739, 9375, 4701, 17521, 7372, 5646, 9376, 13126, 6635, -6956, 6569, -2776, 4918, 12947, 25032, 6259, -4871, -4958, 6039, 331, 2469, -1210, 18303, 15306, 5358, 20440, 3928, 349, 10307, 79812, 10989, 12229, 5308, -148, 7004, 9376, 4993, 10635, };
const TfArray<96, float> quant12_scale = { 96, { 0.00023731733381282538, 0.00015284259279724211, 0.00010354023106629029, 8.272516424767673e-05, 0.00018335491768084466, 0.00029685487970709801, 0.00059377506840974092, 0.00029207952320575714, 7.0803922426421195e-05, 0.00027526399935595691, 0.00028682730044238269, 0.00021637007012031972, 0.00011837605416076258, 0.00019992551824543625, 7.4145464168395847e-05, 0.00036453409120440483, 0.00018919687136076391, 0.00013848094386048615, 0.00014007686695549637, 0.00018339247617404908, 0.00028216507053002715, 0.0004935745382681489, 0.00016589357983320951, 0.00058068835642188787, 0.00051752885337918997, 0.00018886420002672821, 0.00017797329928725958, 0.00017590283823665231, 0.00019940908532589674, 9.4425304268952459e-05, 5.1611943490570411e-05, 0.00014720599574502558, 0.00021179822215344757, 0.0003543047932907939, 0.00014238007133826613, 0.00019078342302236706, 0.00037269006134010851, 0.00043709328747354448, 0.00011461380927357823, 0.00059573620092123747, 0.00014726776862516999, 0.00016178078658413142, 6.8113484303466976e-05, 0.00026462282403372228, 0.000136707050842233, 0.00015645145322196186, 0.00028265608125366271, 0.00016963663802016526, 6.1041064327582717e-05, 0.00018993268895428628, 0.00019933213479816914, 0.00022160761000122875, 0.0003199373313691467, 0.00025775775429792702, 0.00036925316089764237, 0.00014617019041907042, 0.00020528332970570773, 0.00012711051385849714, 0.00030319447978399694, 0.00015631031419616193, 0.00033872376661747694, 8.0826437624637038e-05, 0.00020108152239117771, 0.00017708828090690076, 0.00026549381436780095, 0.0001478096965001896, 0.00019362513558007777, 0.00019068908295594156, 0.00025595008628442883, 0.00026522728148847818, 0.00022356546833179891, 0.00012351360055617988, 8.2901548012159765e-05, 0.00016594874614384025, 0.00032411792199127376, 0.00026931092725135386, 0.0002730985579546541, 0.00031639038934372365, 0.00031200141529552639, 0.00033260168856941164, 0.00011042715777875856, 0.00010921454668277875, 0.00016490033885929734, 9.4885894213803113e-05, 0.00029233601526357234, 0.00019705278100445867, 0.00022640607494395226, 4.8097484977915883e-05, 0.00012978834274690598, 0.00018447668117005378, 0.00023938891536090523, 0.00035577567177824676, 0.00020937185036018491, 0.00016952749865595251, 0.00022974234889261425, 0.00015782387345097959, } };
const TfLiteAffineQuantization quant12 = { (TfLiteFloatArray*)&quant12_scale, (TfLiteIntArray*)&g0::quant6_zero, 0 };
const MODEL_SECTION(EI_MODEL_SECTION) ALIGN(16) int8_t tensor_data13[96*1*1*16] = { 
  /* [0][0][][] */ -1,66,-29,61,13,16,4,-13,19,19,-56,102,18,-127,37,-105, 
  /* [1][0][][] */ 16,51,-15,-29,18,-24,127,-100,6,82,-15,-24,7,-41,35,19, 
  /* [2][0][][] */ -127,32,-33,-9,8,-20,71,92,-49,78,109,-33,-86,3,18,-73, 
  /* [3][0][][] */ -94,73,43,69,-38,64,81,122,11,92,-127,13,44,-99,-96,-92, 
  /* [4][0][][] */ 14,-6,28,73,-25,63,0,39,5,-10,-9,-8,32,-6,-127,-29, 
  /* [5][0][][] */ -11,-23,56,-26,5,-27,-14,20,-76,91,-31,-127,-19,17,-70,-33, 
  /* [6][0][][] */ 9,1,37,-11,39,64,-63,-78,-1,4,45,-8,127,-29,-8,-34, 
  /* [7][0][][] */ 29,6,127,-4,-15,-31,15,-6,-82,36,-81,-38,13,-14,29,-24, 
  /* [8][0][][] */ 26,19,64,94,-55,94,43,27,59,33,0,-91,-31,3,-127,-97, 
  /* [9][0][][] */ 34,-123,70,35,20,-30,-9,15,118,-1,82,-3,-34,-7,-127,-39, 
  /* [10][0][][] */ -56,-95,-11,-33,-115,-3,1,40,90,127,43,-22,-15,51,96,5, 
  /* [11][0][][] */ 35,-25,-2,-77,25,-20,-95,-127,-42,50,-20,-36,23,-31,29,-70, 
  /* [12][0][][] */ -32,18,-3,-62,-39,-29,-109,-5,-72,-96,-15,8,38,127,97,52, 
  /* [13][0][][] */ -26,-112,-58,45,-10,-62,-3,-16,61,7,-10,-5,29,24,127,37, 
  /* [14][0][][] */ -4,-51,48,33,37,31,3,127,31,47,16,-29,20,34,-53,119, 
  /* [15][0][][] */ 27,-37,-3,63,16,-10,101,3,4,-127,13,-38,2,-19,-5,-33, 
  /* [16][0][][] */ 36,-99,-36,36,7,14,41,-66,126,70,120,3,2,127,77,121, 
  /* [17][0][][] */ -78,-80,32,115,92,70,12,-3,127,-51,0,-41,22,72,-93,39, 
  /* [18][0][][] */ -10,20,8,6,-113,-13,-19,56,-78,-32,-27,-59,15,-127,68,10, 
  /* [19][0][][] */ 53,-60,31,-74,98,28,-109,96,84,-78,61,19,-13,53,24,127, 
  /* [20][0][][] */ 51,-19,63,-55,-4,9,-38,42,-14,-54,93,-9,11,14,-45,127, 
  /* [21][0][][] */ -69,-21,3,-32,27,25,-71,-53,-29,60,6,20,-127,-21,35,-17, 
  /* [22][0][][] */ 22,-23,19,-23,24,-62,11,-13,-127,27,-8,-38,-11,-22,75,-28, 
  /* [23][0][][] */ 16,2,14,-6,0,7,-6,5,-10,-2,44,-18,127,-7,8,-39, 
  /* [24][0][][] */ -26,-10,10,-48,-26,-4,37,3,-57,-10,-12,-127,-2,-96,30,-1, 
  /* [25][0][][] */ -127,24,-72,-6,58,-36,-66,-116,-31,69,-27,-52,-63,-81,22,-55, 
  /* [26][0][][] */ 33,-4,57,-111,127,-40,0,3,115,-62,43,-21,-6,113,5,82, 
  /* [27][0][][] */ 94,-31,22,-28,-33,-49,2,-22,-21,22,-127,14,13,-10,1,36, 
  /* [28][0][][] */ -127,-31,-117,-73,41,-7,87,-60,-12,44,-75,6,63,-19,-38,39, 
  /* [29][0][][] */ -56,-33,-4,127,-11,18,7,-35,4,7,-73,53,13,-61,18,-28, 
  /* [30][0][][] */ 36,-25,127,-16,55,54,-22,65,-44,-69,48,-44,-5,14,-74,64, 
  /* [31][0][][] */ 12,-97,6,-50,-8,-62,10,-44,-20,34,107,20,-17,94,72,127, 
  /* [32][0][][] */ -15,71,-30,47,-127,28,-77,-40,-55,-35,-1,53,12,56,28,61, 
  /* [33][0][][] */ 39,-17,21,127,16,-7,21,-48,-104,52,64,-24,9,-1,16,119, 
  /* [34][0][][] */ 42,-9,25,12,87,-31,-127,-21,-38,108,-39,14,-45,0,-5,1, 
  /* [35][0][][] */ 81,8,-29,-12,8,-127,-31,-19,-21,-11,-65,5,65,9,11,28, 
  /* [36][0][][] */ 14,5,-127,-2,33,11,-25,17,-40,-22,8,-7,6,8,-9,9, 
  /* [37][0][][] */ 0,2,127,-4,-69,26,27,-54,-10,29,-43,16,28,-7,12,2, 
  /* [38][0][][] */ -115,28,6,22,20,83,9,-12,9,-30,127,-25,-26,12,-2,-20, 
  /* [39][0][][] */ -12,-9,13,29,31,-16,-127,32,8,31,-5,-37,-2,-20,-5,0, 
  /* [40][0][][] */ 17,77,-9,127,2,31,48,28,-67,-31,-35,66,23,30,-71,-18, 
  /* [41][0][][] */ 22,22,-43,-40,-61,-13,127,105,-63,80,-39,-10,4,70,40,3, 
  /* [42][0][][] */ 11,-19,-22,-37,6,10,-54,64,56,-99,127,64,-9,55,-40,32, 
  /* [43][0][][] */ -69,1,31,-49,40,10,-92,-91,-39,38,0,-23,-127,-23,26,-2, 
  /* [44][0][][] */ 2,9,-16,1,-6,-13,3,-41,127,1,22,48,18,70,5,36, 
  /* [45][0][][] */ -80,-101,8,-118,46,-4,-9,53,5,-68,-31,-40,29,108,-53,127, 
  /* [46][0][][] */ -51,14,-18,72,-83,-17,8,-61,-127,32,-33,-23,-1,29,4,-38, 
  /* [47][0][][] */ -31,-18,-93,127,-8,46,1,-31,3,55,48,49,-25,-20,17,-28, 
  /* [48][0][][] */ -20,-17,43,-127,45,-30,-31,5,-79,3,28,-32,-8,82,104,41, 
  /* [49][0][][] */ -12,14,61,105,-11,46,-72,-4,15,-59,-93,-37,-38,-50,-84,-127, 
  /* [50][0][][] */ 18,73,9,-127,48,3,-29,48,122,-32,-34,19,19,-49,27,-16, 
  /* [51][0][][] */ 16,-34,22,2,50,-9,-47,-127,17,-60,-12,4,-19,-7,-16,-16, 
  /* [52][0][][] */ 30,9,6,24,35,-19,-68,93,-91,127,-49,-46,72,95,-4,-45, 
  /* [53][0][][] */ -4,85,-1,-92,-25,-2,35,-28,-51,-41,-34,51,13,-127,-70,-6, 
  /* [54][0][][] */ 2,4,14,28,46,-29,4,-40,-8,34,-19,-25,-9,127,-42,-13, 
  /* [55][0][][] */ -121,127,75,-30,34,-7,-28,0,-49,15,100,-21,-5,-21,99,-1, 
  /* [56][0][][] */ 43,0,23,-127,74,5,-25,37,37,-63,43,107,-14,11,83,47, 
  /* [57][0][][] */ -19,4,18,56,-11,8,43,127,-3,4,12,-24,5,42,11,20, 
  /* [58][0][][] */ 13,127,3,-112,9,39,-4,24,109,6,-2,83,2,-80,35,60, 
  /* [59][0][][] */ 23,44,48,-127,-54,8,30,2,3,17,32,-72,-23,-111,-61,24, 
  /* [60][0][][] */ 40,-17,103,-55,-35,127,37,-31,-13,41,-52,-11,33,2,34,0, 
  /* [61][0][][] */ -34,27,-47,-45,-61,19,125,127,-11,87,-15,4,1,80,18,-45, 
  /* [62][0][][] */ -24,1,-6,-6,-71,19,-50,-1,-34,-13,-9,-59,7,-127,72,-6, 
  /* [63][0][][] */ 19,-29,-11,-68,45,-8,-126,-127,-38,99,-11,1,46,-4,15,-50, 
  /* [64][0][][] */ -20,-11,21,52,76,-1,-21,-127,37,-87,6,-40,-11,-21,-4,-8, 
  /* [65][0][][] */ -127,24,26,-65,23,73,41,-55,-86,26,58,-7,-2,9,-14,-30, 
  /* [66][0][][] */ 68,3,106,16,-60,28,-35,65,-62,-18,61,-99,-10,46,-127,-27, 
  /* [67][0][][] */ 47,-21,-33,71,62,-41,-82,-94,46,-127,-60,-24,-96,12,-71,27, 
  /* [68][0][][] */ 4,-27,-64,52,-62,-83,2,-52,-36,-18,43,-63,-26,63,127,-14, 
  /* [69][0][][] */ -32,37,-77,64,-11,-117,25,68,26,17,46,-22,127,21,-23,-8, 
  /* [70][0][][] */ 3,6,-45,-36,-50,8,127,84,-18,54,-22,3,20,43,15,-7, 
  /* [71][0][][] */ 17,-16,-25,-50,20,-1,16,55,-24,-40,-17,4,14,-127,84,17, 
  /* [72][0][][] */ 50,18,-16,44,25,-59,-53,-127,20,71,-68,10,63,68,38,52, 
  /* [73][0][][] */ -40,-127,-25,-52,-73,-20,42,-35,-19,22,-41,-30,13,-52,62,-12, 
  /* [74][0][][] */ -21,29,52,87,0,-2,-127,89,30,-30,-41,-49,1,-10,-6,4, 
  /* [75][0][][] */ -51,46,-35,19,-19,81,73,125,-6,45,-4,-40,-127,89,8,24, 
  /* [76][0][][] */ 18,-12,-34,-22,45,-74,-127,-97,-11,-25,22,2,47,5,84,-21, 
  /* [77][0][][] */ -32,4,-28,-22,-40,-5,-19,-49,127,14,-70,0,-13,48,27,-92, 
  /* [78][0][][] */ -94,-127,-2,80,80,69,-37,50,3,-80,-105,79,36,-9,91,75, 
  /* [79][0][][] */ 43,-15,31,-62,127,0,40,16,82,25,-6,35,-2,-20,15,-34, 
  /* [80][0][][] */ -5,-28,68,-116,-24,-35,-2,3,-88,-46,-14,-48,-2,127,-40,15, 
  /* [81][0][][] */ 31,-7,37,50,6,52,-15,-14,15,-6,-4,-40,-8,39,-127,16, 
  /* [82][0][][] */ -75,-11,18,-127,-18,-42,-13,-28,-26,-46,-35,-114,-4,-97,-81,40, 
  /* [83][0][][] */ -16,4,-29,-78,-52,17,7,40,-99,6,8,-95,25,-127,8,55, 
  /* [84][0][][] */ 127,39,32,51,-50,10,-60,36,-1,-28,125,2,-89,30,80,-92, 
  /* [85][0][][] */ -11,-23,14,-42,40,-12,-37,127,-85,-119,-68,-51,-18,83,98,-122, 
  /* [86][0][][] */ 32,6,19,-11,-63,63,-61,58,-103,-70,27,-20,-23,-127,-12,48, 
  /* [87][0][][] */ 127,-33,21,-17,-36,-46,7,-9,-2,24,-122,6,31,-14,10,32, 
  /* [88][0][][] */ 43,89,-29,4,6,-36,-3,-5,113,36,21,31,-28,-27,102,-127, 
  /* [89][0][][] */ 45,76,-73,-12,-44,-18,25,-50,44,40,24,-29,-40,-2,-32,-127, 
  /* [90][0][][] */ -2,-19,10,-70,-50,26,127,-52,94,-61,11,-72,26,-10,-48,-13, 
  /* [91][0][][] */ 16,-3,-12,-88,-34,3,38,-39,-48,31,66,54,4,-18,43,127, 
  /* [92][0][][] */ 22,-2,17,22,66,-19,-66,-127,40,-56,-8,-20,-43,-23,-9,-29, 
  /* [93][0][][] */ 79,-5,26,-114,-49,-3,-32,51,57,-82,71,-7,-26,127,-17,36, 
  /* [94][0][][] */ -113,50,-105,29,84,-127,-6,-8,-5,-34,86,-40,-11,-15,-31,-16, 
  /* [95][0][][] */ -25,65,7,-127,-15,-1,-23,-5,15,-35,-41,-52,12,23,-51,1, 
};
const TfArray<96, float> quant13_scale = { 96, { 0.00078730803215876222, 0.00050706032197922468, 0.00034349810448475182, 0.00027444344596005976, 0.00060828594723716378, 0.00098482577595859766, 0.0019698683172464371, 0.00096898339688777924, 0.0002348943380638957, 0.00091319734929129481, 0.00095155899180099368, 0.00071781477890908718, 0.00039271643618121743, 0.00066325947409495711, 0.00024598001618869603, 0.0012093537952750921, 0.0006276668282225728, 0.00045941508142277598, 0.00046470959205180407, 0.00060841056983917952, 0.00093609187752008438, 0.0016374496044591069, 0.00055035739205777645, 0.0019264526199549437, 0.0017169190105050802, 0.00062656315276399255, 0.00059043226065114141, 0.00058356340741738677, 0.00066154618980363011, 0.00031325905001722276, 0.000171224310179241, 0.00048836070345714688, 0.00070264755049720407, 0.001175417797639966, 0.00047235054080374539, 0.00063293025596067309, 0.0012364115100353956, 0.0014500713441520929, 0.00038023505476303399, 0.0019763743039220572, 0.0004885656526312232, 0.00053671305067837238, 0.0002259687171317637, 0.00087789486860856414, 0.00045353014138527215, 0.00051903282292187214, 0.00093772081891074777, 0.00056277512339875102, 0.00020250573288649321, 0.0006301079411059618, 0.00066129089100286365, 0.00073519052239134908, 0.0010614026105031371, 0.00085511978249996901, 0.0012250094441697001, 0.00048492441419512033, 0.00068103417288511992, 0.00042169331572949886, 0.0010058576008304954, 0.00051856460049748421, 0.0011237271828576922, 0.0002681443584151566, 0.00066709454404190183, 0.00058749614981934428, 0.0008807844715192914, 0.00049036351265385747, 0.00064235774334520102, 0.00063261727336794138, 0.0008491228218190372, 0.000879900180734694, 0.00074168574064970016, 0.00040976042510010302, 0.00027502860757522285, 0.00055054039694368839, 0.0010752718662843108, 0.0008934478391893208, 0.00090601341798901558, 0.0010496354661881924, 0.0010350749362260103, 0.0011034170165657997, 0.00036634571733884513, 0.00036232284037396312, 0.00054706225637346506, 0.0003147870593238622, 0.0009698342764750123, 0.00065372907556593418, 0.00075110956095159054, 0.00015956498100422323, 0.00043057708535343409, 0.00061200745403766632, 0.0007941805524751544, 0.0011802974622696638, 0.00069459795486181974, 0.00056241301354020834, 0.00076217774767428637, 0.00052358588436618447, } };
const TfLiteAffineQuantization quant13 = { (TfLiteFloatArray*)&quant13_scale, (TfLiteIntArray*)&g0::quant6_zero, 0 };
const MODEL_SECTION(EI_MODEL_SECTION) ALIGN(16) int32_t tensor_data14[16] = { -3849, -3174, -14252, 32667, 24051, 5132, -7136, -3789, 28098, 3768, 29254, 22469, -10771, 12910, 33172, -28082, };
const TfArray<16, float> quant14_scale = { 16, { 0.00049989990657195449, 0.00025333865778520703, 0.00023969763424247503, 0.00022998428903520107, 0.00042400677921250463, 0.0003248052962590009, 0.00034196511842310429, 0.0003978980821557343, 0.00018329628801438957, 0.00028198189102113247, 0.00039628017111681402, 0.00076746626291424036, 0.00041928261634893715, 0.00046975919394753873, 0.00042155961273238063, 0.00031253293855115771, } };
const TfLiteAffineQuantization quant14 = { (TfLiteFloatArray*)&quant14_scale, (TfLiteIntArray*)&g0::quant8_zero, 0 };
const MODEL_SECTION(EI_MODEL_SECTION) ALIGN(16) int8_t tensor_data15[16*1*1*96] = { 
  /* [0][0][][] */ -3,19,-8,19,38,76,-29,-21,39,4,8,4,-3,12,24,61,0,-12,-7,-4,90,-49,9,-23,-18,-36,-42,-90,0,-11,47,41,109,-7,2,-2,4,-17,-14,4,-33,11,15,-27,1,-25,-7,26,-17,25,-4,-13,-36,-15,9,-1,36,28,-17,-31,-63,29,-12,-5,8,6,55,7,10,6,-5,-23,-64,-8,3,7,-6,-81,3,-13,39,-17,-60,-44,23,-14,7,21,0,-4,18,-31,25,21,-9,127, 
  /* [1][0][][] */ 73,-89,39,80,-8,-49,-22,-52,-29,-89,-13,21,22,-59,-31,-58,-80,-1,18,25,-40,-98,-32,24,127,-63,-70,19,-25,87,-20,48,16,14,-36,17,-13,-2,44,-36,3,-77,64,-20,-46,9,66,-5,28,18,-3,-62,76,-89,40,-27,13,38,-25,-100,30,-60,13,-46,-1,-76,33,45,50,51,-33,10,-105,29,-8,72,24,97,12,-22,46,6,-85,29,-90,69,-11,48,-37,-1,8,11,20,-47,34,12, 
  /* [2][0][][] */ 22,18,12,-29,12,-6,-8,35,71,-9,20,73,-11,9,52,6,-7,-18,12,0,-16,-67,3,-54,-3,-12,-23,31,-12,27,124,-55,19,-73,-21,60,22,127,-44,-17,-1,-22,0,33,-51,-57,-75,28,34,28,-29,-33,26,4,4,-33,-27,-6,5,38,10,8,85,96,9,-81,18,-74,-19,-13,-18,3,-11,19,-31,14,22,62,11,14,7,94,36,-12,-7,8,19,10,20,12,4,-54,-51,2,-6,60, 
  /* [3][0][][] */ -12,-25,-31,41,25,-28,3,-24,-11,15,9,13,1,-11,45,-2,40,-41,22,3,-14,-19,-12,5,-21,13,13,-16,19,-42,68,-18,17,-11,-14,57,-18,-8,-13,16,16,-68,30,-36,-2,1,-8,-1,-127,41,-11,29,-122,-54,-30,-34,37,8,-18,57,0,16,14,17,-13,-99,-40,26,65,24,6,28,-41,19,-16,-57,-45,-57,30,-45,13,-24,26,75,43,53,42,17,24,-1,-11,6,-39,6,-15,-32, 
  /* [4][0][][] */ 0,-25,20,-64,-3,-18,-42,4,-24,-41,-28,-6,0,72,5,3,52,-10,5,8,-10,23,54,9,-3,-7,22,14,7,-5,-8,-2,-33,5,6,13,33,-28,7,-5,11,10,-92,-27,30,-7,-19,-9,8,81,-6,-22,-29,-13,8,-11,2,-35,30,31,14,4,9,-5,35,-106,19,-16,-44,15,-17,-6,-11,23,-20,24,-16,59,56,2,14,6,127,-35,44,-14,-2,3,67,15,-2,24,-41,21,-5,-49, 
  /* [5][0][][] */ -14,9,4,-2,-12,-13,5,118,58,-13,-14,-33,-22,31,40,30,-22,-7,-3,-38,-52,-19,2,-47,8,10,33,85,80,16,64,52,-45,19,5,-10,-61,-58,-24,-14,-44,-16,-6,-2,69,14,-5,18,15,12,-11,6,-35,-8,3,-11,-16,-28,3,42,-46,31,-25,-36,13,18,-28,10,3,19,2,-10,28,13,2,-11,1,25,16,121,1,-46,35,34,11,1,25,-24,-12,-14,21,-122,-47,-22,-12,-127, 
  /* [6][0][][] */ -32,-3,-9,-54,-8,-22,-19,14,-8,19,-23,-7,44,-59,11,-17,-9,-71,31,16,-1,9,-14,27,82,-8,2,5,24,-11,7,-15,-18,-2,-22,-1,17,4,28,31,-9,-32,-55,-19,-1,-19,33,-127,17,39,21,9,8,6,-4,-51,41,-3,3,9,18,25,-1,13,37,68,27,-20,-16,-11,10,-27,12,1,48,-4,-26,30,5,7,-10,-4,54,-37,-5,46,15,-20,28,0,-38,-1,-14,14,-5,19, 
  /* [7][0][][] */ 17,7,33,-28,-3,5,-9,-28,-2,-17,-14,-13,-13,-99,26,9,-8,-39,-16,-13,15,-10,-43,-8,-24,-7,-3,-18,5,13,8,2,-17,6,-12,-14,5,-8,-35,30,10,-20,-25,31,-8,12,-20,75,1,21,-20,-21,-24,10,-2,-51,38,-2,-5,4,-4,3,-14,-11,-19,39,14,-33,-21,-10,7,38,-4,-8,-19,7,50,9,-7,-24,1,-40,32,-4,-39,127,-7,-5,-39,-27,-1,18,-21,-2,-5,3, 
  /* [8][0][][] */ -71,58,-57,6,45,-14,-11,38,13,79,-54,2,14,47,86,-16,-8,34,-85,19,18,25,-28,5,-52,-31,32,18,62,-108,-8,0,34,2,19,-16,-19,43,-37,41,10,25,4,-127,-43,-8,62,-23,-63,27,2,75,-114,85,13,-3,13,-25,-15,-15,0,-36,1,32,-28,38,35,-25,1,-6,29,96,-34,35,49,36,-3,-96,0,-49,-11,-12,36,0,-67,10,11,-41,6,40,-33,10,32,-26,-23,-16, 
  /* [9][0][][] */ 22,-56,-31,-35,12,22,-15,18,31,-10,3,17,-49,-23,3,24,-6,6,35,-23,-17,1,-21,-39,28,14,27,-16,-38,-28,-16,-1,-13,16,15,36,2,39,-41,25,15,8,-14,-83,4,-15,19,-127,-28,-6,4,31,-11,13,-16,9,-46,18,-15,16,16,5,12,20,28,105,34,39,8,-1,17,-25,-11,6,-39,4,62,-10,16,9,-15,1,16,-34,6,20,2,-4,-52,38,-30,-4,2,14,7,-19, 
  /* [10][0][][] */ 28,47,-16,34,67,-122,-6,-32,-1,46,30,-10,-15,14,17,-84,17,41,-19,44,-94,-3,-9,-25,-62,-30,-50,57,20,4,-2,33,-7,-19,34,-17,80,-27,-7,-13,-19,65,55,-18,-57,-10,-40,16,-25,-16,-32,-6,-20,-19,9,-19,18,31,-15,-13,2,14,-13,31,5,49,53,29,25,-3,26,54,-61,-29,-53,-12,5,33,-26,2,36,-10,-71,-36,60,-46,99,-3,-18,12,20,-12,81,32,-17,-127, 
  /* [11][0][][] */ 45,39,-30,19,-8,15,58,10,-1,-18,-23,-17,1,3,37,6,-5,-9,-96,-9,4,10,4,-6,-42,-19,-10,0,7,16,2,-9,-1,5,7,21,5,17,-4,18,8,30,59,-97,27,-36,2,-7,-127,14,7,-50,18,15,-13,14,-10,-9,7,7,11,-14,-12,12,-47,50,-15,13,21,1,27,14,-49,-25,18,27,-2,-31,-52,3,13,-3,90,44,5,-10,-16,-9,7,19,-21,-1,1,10,-26,17, 
  /* [12][0][][] */ -30,-2,8,5,-27,28,17,5,127,7,-14,3,-6,11,-36,-33,21,24,13,71,61,24,-5,-16,-4,9,21,-25,-99,7,27,-33,7,-5,-2,-17,14,5,43,-3,-42,-14,-1,12,1,29,-1,-2,21,7,-35,12,5,4,7,-7,69,-29,18,19,19,-12,5,-7,0,32,-37,3,2,8,-16,-34,12,16,-68,2,33,-8,14,-62,-8,11,44,37,-11,-13,-25,-20,5,23,3,50,-20,-21,16,5, 
  /* [13][0][][] */ 28,-15,-24,22,30,1,5,-2,-4,1,11,-3,14,-14,7,-10,17,-64,-34,7,-7,-15,5,0,7,12,-3,-6,-14,-28,-1,13,-5,7,4,44,18,-1,3,17,2,6,21,35,13,15,-12,-127,24,-4,1,9,-13,-4,12,7,-14,17,17,9,6,13,-4,1,-11,-19,-20,-54,1,10,-7,-32,-10,32,-9,20,-27,2,13,-2,22,-8,-18,18,10,26,7,14,-5,-5,18,-9,6,11,-12,-7, 
  /* [14][0][][] */ -106,-55,32,50,29,-27,-29,19,-20,4,-14,9,69,7,-127,-4,79,-14,-11,28,-16,1,32,17,-100,5,26,-6,-36,-79,-29,-3,-6,-1,24,-66,31,32,1,16,16,35,-4,-37,19,123,74,60,-115,53,6,30,-55,-10,37,-10,13,13,67,54,29,53,9,46,-5,-11,-45,47,6,72,-56,-76,-80,-5,1,50,-9,47,80,4,64,19,30,20,39,17,43,31,31,40,63,-3,9,26,21,-20, 
  /* [15][0][][] */ 90,-25,33,6,1,82,28,-19,-17,48,4,-5,-73,-16,-13,32,14,37,48,-10,11,30,-87,55,27,8,35,0,24,34,-59,-73,9,-53,35,-4,46,-28,-60,-108,-7,33,-2,37,-1,45,-14,-36,95,-44,-59,30,46,-127,65,-94,-4,-51,21,22,-127,-7,16,24,71,-24,-54,38,-38,64,-31,22,45,20,28,12,19,-44,63,-10,-15,1,36,71,-12,0,-4,-59,12,-17,71,2,-52,50,20,-3, 
};
const TfArray<16, float> quant15_scale = { 16, { 0.021245745941996574, 0.010766892693936825, 0.010187149047851562, 0.0097743319347500801, 0.018020287156105042, 0.013804224319756031, 0.014533516950905323, 0.016910668462514877, 0.0077900923788547516, 0.011984230019152164, 0.016841907054185867, 0.032617315649986267, 0.017819510772824287, 0.019964765757322311, 0.017916282638907433, 0.013282649219036102, } };
const TfLiteAffineQuantization quant15 = { (TfLiteFloatArray*)&quant15_scale, (TfLiteIntArray*)&g0::quant8_zero, 0 };
const MODEL_SECTION(EI_MODEL_SECTION) ALIGN(16) int32_t tensor_data16[96] = { 11176, -8595, 3052, 49663, -2245, -4361, -11598, 2777, -2803, 574, 2820, -2154, 1344, -6390, 5977, -6558, -1442, 16881, 24487, 2669, 2587, -2528, -1116, 506, 20819, -1250, -1300, -3595, -5578, -7301, 8180, -9081, -318, -543, -1100, 12255, 1421, -3348, 20017, 650, -32, 2085, -9398, -7373, -8503, 66148, -816, 18019, 35105, -12427, -109, 7792, 7720, -194, -5326, 2320, -10066, 1735, 2166, -7145, -1026, -1085, -11573, -1188, 1200, 17744, 28890, 18604, -12350, 44, -8500, -516, 42416, 11647, 79, 106, 18940, 36023, -1013, -9105, -1412, -4822, 1078, -3275, 1103, 852, 1728, -646, 1366, -3196, -34, -192, 124, -312, 57, 48293, };
const TfArray<96, float> quant16_scale = { 96, { 0.0001678021508269012, 0.00013700070849154145, 0.0002180619485443458, 4.2115829273825511e-05, 0.00013109447900205851, 0.00017362415383104235, 0.00028963066870346665, 7.6803255069535226e-05, 0.00010911199933616444, 0.00035102420952171087, 0.00016850624524522573, 0.00029359743348322809, 0.00010837682930286974, 0.00041662313742563128, 0.00017042121908161789, 0.00011859585356432945, 8.769481792114675e-05, 0.00031046292860992253, 6.2949853600002825e-05, 0.0002093619987135753, 4.6342651330633089e-05, 0.00017668896180111915, 0.00011467978765722364, 0.00036346170236356556, 0.00016400180174969137, 0.00024229980772361159, 0.00011776830797316507, 0.00017912627663463354, 0.00013814546400681138, 0.00011648098006844521, 0.00010654983634594828, 0.0001737839775159955, 0.00011575860844459385, 0.00013180475798435509, 0.00017502540140412748, 0.00018808427557814866, 0.00036120266304351389, 0.00012379084364511073, 5.0435017328709364e-05, 0.00016117698396556079, 0.0002292599092470482, 0.00027957497513853014, 0.00038653673254884779, 0.00014954393554944545, 0.00015355103823821992, 5.926224184804596e-05, 0.00017809415294323117, 0.00018488219939172268, 7.51599291106686e-05, 0.00019519719353411347, 0.00020797281467821449, 0.00017005443805828691, 0.0002154940739274025, 0.00028261321131139994, 0.00028151992592029274, 0.00042412904440425336, 0.00042136452975682914, 0.00022206806170288473, 9.8965996585320681e-05, 7.0496476837433875e-05, 0.00033919821726158261, 0.00012645550305023789, 0.00028501957422122359, 0.00010832620318979025, 0.00016533245798200369, 0.00015754951164126396, 8.5985120676923543e-05, 9.2681024398189038e-05, 0.00030911809881217778, 0.00018791503680404276, 0.00020089819736313075, 0.0001069996869773604, 0.00013676923117600381, 0.00014510855544358492, 0.00015203849761746824, 0.00022209537564776838, 0.00054404028924182057, 4.9837701226351783e-05, 0.00023976617376320064, 0.00021603715140372515, 0.00015256827464327216, 0.00044329214142635465, 0.0001269542844966054, 0.00014902795373927802, 0.00011848764552269131, 9.2893271357752383e-05, 0.00011475957580842078, 0.00014811217261012644, 0.00017839374777395278, 9.7728086984716356e-05, 0.00016199174569919705, 0.00010678570106392726, 0.00013963261153548956, 0.00042164005571976304, 0.021409144625067711, 8.0544785305391997e-05, } };
const TfLiteAffineQuantization quant16 = { (TfLiteFloatArray*)&quant16_scale, (TfLiteIntArray*)&g0::quant6_zero, 0 };
const MODEL_SECTION(EI_MODEL_SECTION) ALIGN(16) int8_t tensor_data17[1*3*3*96] = { 
  /* [0][0][][] */ -18,7,-20,106,-18,24,-62,-54,18,-5,101,-8,4,-7,-5,55,5,17,-34,3,76,3,32,-35,2,17,44,49,22,13,23,47,-8,27,9,-15,5,48,-61,-26,19,9,27,18,-85,-54,26,-5,-10,-21,-8,-6,49,5,-8,2,-3,-36,27,-31,26,-2,127,27,-14,-10,12,-52,65,35,3,-7,77,-33,68,3,17,-127,30,65,0,14,127,-13,37,28,-30,-20,35,-6,-15,81,1,19,-2,12, -49,14,-8,10,51,-7,-10,-127,39,14,-127,-4,-16,-11,4,95,17,-29,-14,-15,78,-96,127,25,-62,-31,-104,-15,28,36,-50,18,118,12,-14,-1,-24,127,-63,-127,8,-19,-30,14,47,-127,127,-44,-75,50,50,7,38,-64,32,56,36,43,-101,84,127,34,4,-21,42,-37,-94,-1,36,-31,-19,45,-49,-49,105,-5,-30,-60,-33,64,-67,62,-16,9,-11,47,54,-42,-28,54,-14,71,-127,-31,24,-127, 0,-3,-23,-75,7,19,38,21,-3,-1,5,62,0,-12,-11,7,-12,17,-15,17,6,26,24,-33,0,-31,11,12,-6,5,46,-80,45,18,8,-23,12,4,-32,-20,7,2,-16,9,22,-34,21,1,6,-9,6,-5,5,6,-5,9,-8,45,5,-2,10,-18,3,-18,-27,-17,30,-50,-107,-8,40,-17,-127,-23,-13,16,11,-12,5,12,-14,22,-35,-4,-41,21,25,36,-25,-16,24,-12,20,6,-1,-45, 
  /* [0][1][][] */ -41,59,-18,38,-85,-15,-11,-45,26,97,-44,-21,-30,-24,-7,62,127,-24,-91,-13,58,-127,-29,15,-36,-47,-127,-6,37,35,-50,27,-127,-75,-57,3,66,-3,-54,47,-19,86,1,-3,34,-49,-12,-32,127,44,-3,21,44,9,-36,-17,32,9,-123,127,-37,-88,21,127,-60,-35,-83,126,-35,127,-18,52,-34,-55,36,9,-35,-70,127,49,127,35,6,-1,127,29,-97,47,-38,-36,-101,39,96,102,29,-57, 127,127,127,127,-47,-127,127,22,127,-127,15,-127,-106,127,127,127,-16,-127,-61,-127,127,23,-67,127,127,127,-54,-127,127,127,-127,127,-8,-127,-125,127,-127,-44,97,109,-127,-127,127,127,127,-116,-107,127,-13,127,-127,-127,-127,127,127,-127,127,-127,-41,41,-106,-27,-71,-69,127,127,-71,127,127,-107,-127,127,-41,127,-127,-127,-127,123,-74,127,-43,127,79,127,-38,-127,-26,-107,-127,-126,-23,-127,-21,-127,-127,116, -24,66,-38,3,127,71,-21,48,5,24,-13,-5,-26,-30,-14,-7,-103,-21,-127,39,30,78,-11,-117,-34,-40,125,71,10,34,72,8,127,-47,127,-4,55,5,-94,14,36,23,-22,1,-24,-52,-12,-43,80,15,-12,40,-6,-4,-76,-14,25,21,127,-89,2,127,0,-36,-111,-28,-76,100,14,-17,111,24,-16,-57,10,48,-29,-8,-43,-2,-45,8,46,24,-90,35,127,-47,32,-22,127,-10,-111,34,34,19, 
  /* [0][2][][] */ -5,-38,-21,-61,-4,14,40,30,-2,11,-21,52,25,-34,-8,6,41,3,11,21,-9,31,-17,-27,2,-23,8,4,-9,-7,49,-76,-40,67,-28,-25,31,-35,-65,17,9,9,-34,19,13,-75,-11,-1,-9,6,16,-7,7,1,-23,6,-1,45,-48,33,-5,-12,5,17,-5,-10,23,-52,-55,12,-21,-12,-116,-33,1,19,14,-12,56,18,23,21,-41,16,11,25,-21,11,4,25,24,-6,20,41,-7,-30, -27,-9,-27,23,-45,74,-24,64,6,-6,54,-12,127,-7,-19,-17,0,-40,-59,24,-24,80,-44,-113,-48,-46,102,69,14,43,54,-2,-124,63,-16,-23,-28,-27,-127,-4,44,-14,-15,36,-26,-43,-18,-48,-60,27,69,25,-12,-80,28,52,18,27,76,-56,20,-57,-9,0,20,-26,-127,-54,-10,-26,-63,22,36,-47,-29,-6,-45,23,-55,2,50,34,20,10,5,62,-94,127,15,127,-29,-18,114,-21,46,82, -10,-33,-26,29,12,64,-43,12,4,-5,1,14,12,-50,-10,-13,-43,-6,15,19,-24,6,-20,4,-4,20,-2,51,-2,-6,33,28,16,43,19,-23,-7,-26,-30,8,11,-12,22,8,-74,-31,-13,4,-2,-16,-1,-4,-9,9,-18,-4,0,-50,13,-30,-22,50,9,-28,-10,-2,34,-53,47,8,52,-21,30,-56,-17,23,10,10,-5,23,-29,32,90,-14,-18,55,38,-10,108,13,3,-18,11,-22,-6,-51, 
};
const TfArray<96, float> quant17_scale = { 96, { 0.007131590973585844, 0.0058225300163030624, 0.0092676328495144844, 0.0017899227095767856, 0.0055715152993798256, 0.0073790261521935463, 0.01230930257588625, 0.0032641382422298193, 0.0046372599899768829, 0.014918528497219086, 0.007161515299230814, 0.012477890588343143, 0.0046060150489211082, 0.017706483602523804, 0.0072429017163813114, 0.0050403238274157047, 0.0037270297762006521, 0.0131946736946702, 0.0026753686834126711, 0.0088978847488760948, 0.0019695626106113195, 0.0075092809274792671, 0.004873890895396471, 0.015447122044861317, 0.0069700763560831547, 0.010297741740942001, 0.0050051528960466385, 0.0076128663495182991, 0.0058711818419396877, 0.0049504414200782776, 0.004528367891907692, 0.0073858187533915043, 0.0049197408370673656, 0.0056017022579908371, 0.0074385795742273331, 0.0079935817047953606, 0.015351112931966782, 0.005261110607534647, 0.0021434882655739784, 0.0068500218912959099, 0.0097435461357235909, 0.011881936341524124, 0.016427811235189438, 0.0063556171953678131, 0.0065259188413619995, 0.0025186452548950911, 0.0075690015219151974, 0.0078574931249022484, 0.0031942969653755426, 0.0082958806306123734, 0.0088388444855809212, 0.0072273132391273975, 0.0091584976762533188, 0.012011061422526836, 0.011964596807956696, 0.018025483936071396, 0.017907992005348206, 0.0094378925859928131, 0.0042060548439621925, 0.0029961001127958298, 0.014415924437344074, 0.0053743589669466019, 0.012113331817090511, 0.0046038636937737465, 0.0070266290567815304, 0.0066958540119230747, 0.0036543675232678652, 0.0039389436133205891, 0.013137518428266048, 0.0079863891005516052, 0.0085381735116243362, 0.0045474865473806858, 0.0058126924559473991, 0.0061671133153140545, 0.0064616361632943153, 0.009439053013920784, 0.023121710866689682, 0.0021181022748351097, 0.01019006222486496, 0.0091815786436200142, 0.0064841518178582191, 0.018839916214346886, 0.0053955572657287121, 0.0063336878083646297, 0.0050357249565422535, 0.0039479639381170273, 0.004877281840890646, 0.0062947673723101616, 0.0075817340984940529, 0.0041534435003995895, 0.0068846489302814007, 0.0045383921824395657, 0.0059343855828046799, 0.017919702455401421, 0.9098886251449585, 0.0034231531899422407, } };
const TfLiteAffineQuantization quant17 = { (TfLiteFloatArray*)&quant17_scale, (TfLiteIntArray*)&g0::quant6_zero, 3 };
const MODEL_SECTION(EI_MODEL_SECTION) ALIGN(16) int32_t tensor_data18[96] = { 15324, 1291, 7159, -642, 4240, 6882, 20179, 5587, -1408, 19132, 7113, 1438, 8600, 34147, -330, -2341, 13752, 10331, 2460, -183, -714, 14711, 4883, 3655, 7268, 4486, 4126, 4666, 24, -33, 6399, 10174, 17542, 1937, 7881, -678, 24271, 7791, 730, 5448, 797, 11470, 15804, 5035, 3445, 12988, 15800, 4697, 4727, 3913, 260, -824, 19899, 7400, 6853, 14495, -304, 10523, 2718, 4323, 17621, 5918, 2948, 6222, 8319, 4314, 6547, -746, 15531, 8753, 9350, -1325, -1685, 3204, 1908, 2641, 21485, 17941, 14568, -1950, 5044, -4802, -2169, 620, 5681, 5101, 9067, 5195, 10889, 4571, 9255, 4842, 16841, 21407, -10459, 16953, };
const TfArray<96, float> quant18_scale = { 96, { 0.000167944046552293, 0.00024167624360416085, 0.00018938112771138549, 0.00083955080481246114, 0.0003805733285844326, 0.00013275322271510959, 0.00015432511281687766, 0.00063195277471095324, 0.00032990446197800338, 9.4822455139365047e-05, 0.00020312043488956988, 0.00056785979541018605, 0.00031851103994995356, 0.00014132098294794559, 0.00027950061485171318, 0.00029390936833806336, 0.00016130917356349528, 0.00022688237368129194, 0.00019136807532049716, 0.00069249077932909131, 0.00038186355959624052, 0.00016926990065257996, 0.00031015957938507199, 0.00022140213695820421, 0.00024612955166958272, 0.00046256009954959154, 0.00034246905124746263, 0.0001938840578077361, 0.00076325319241732359, 0.00032715109409764409, 0.00022191251628100872, 0.00018646995886228979, 0.00011248396913288161, 0.00055083323968574405, 0.00021527406352106482, 0.00040376096148975194, 9.3082722742110491e-05, 0.00033777119824662805, 0.00061783019918948412, 0.00017743335047271103, 0.00063826149562373757, 0.00016455881996080279, 0.00013612677867058665, 0.00015027019253466278, 0.00032956904033198953, 0.00025268475292250514, 0.00017803434457164258, 0.0003110560355708003, 0.00033817210351116955, 0.00022473414719570428, 0.00043670347076840699, 0.00080563669325783849, 0.00013312538794707507, 0.00021418498363345861, 0.0003380955895408988, 0.00012891121150460094, 0.00038908710121177137, 0.0001673567749094218, 0.00029152972274459898, 0.00037005348713137209, 9.5304218120872974e-05, 0.00023473636247217655, 0.00035786721855401993, 0.00044653986697085202, 0.00012816932576242834, 0.0002636344579514116, 0.00029934360645711422, 0.0004379725141916424, 0.00017207731434609741, 0.00013391830725595355, 0.00021330737217795104, 0.00036414884380064905, 0.00022234335483517498, 0.00040409105713479221, 0.0002290932898176834, 0.00046982569620013237, 0.00011082299170084298, 0.00025101733626797795, 0.00011549711052794009, 0.00061649410054087639, 0.00021983480837661773, 0.00043465133057907224, 0.00018541378085501492, 0.00044410713599063456, 0.00028178034699521959, 0.00030378479277715087, 0.00018059003923553973, 0.00026417872868478298, 0.00015370534674730152, 0.00034558889456093311, 0.00014938348613213748, 0.00035473730531521142, 0.00012433866504579782, 0.00012952736869920045, 0.0002789658319670707, 0.00019239871471654624, } };
const TfLiteAffineQuantization quant18 = { (TfLiteFloatArray*)&quant18_scale, (TfLiteIntArray*)&g0::quant6_zero, 0 };
const MODEL_SECTION(EI_MODEL_SECTION) ALIGN(16) int8_t tensor_data19[96*1*1*16] = { 
  /* [0][0][][] */ 31,-15,127,106,58,-12,36,-19,100,-6,-57,-75,21,82,-30,-84, 
  /* [1][0][][] */ 46,59,4,7,93,-10,-5,30,65,68,-36,127,-13,-9,103,-102, 
  /* [2][0][][] */ 39,-61,14,-7,-56,48,-64,93,-82,-106,7,87,-9,-127,94,-90, 
  /* [3][0][][] */ 127,117,-14,38,-113,-24,-75,-22,8,-7,109,-60,-50,95,-54,-29, 
  /* [4][0][][] */ 11,2,27,3,-30,23,-19,42,-75,-44,-8,-4,-8,-127,28,5, 
  /* [5][0][][] */ 127,-50,-30,-1,-3,-119,-35,5,-15,4,-121,3,31,-11,-16,38, 
  /* [6][0][][] */ -127,-84,-18,109,-46,-5,-60,36,-126,-94,-84,-41,26,77,-5,112, 
  /* [7][0][][] */ -21,22,-71,38,38,-127,-30,39,5,-37,15,-12,-3,15,-32,21, 
  /* [8][0][][] */ 27,-49,-11,-11,3,32,-52,-66,-7,17,-65,8,-127,-2,7,23, 
  /* [9][0][][] */ 16,-52,61,127,9,30,-8,-77,109,-78,-7,-19,-17,39,-72,8, 
  /* [10][0][][] */ -121,-85,-4,-37,127,48,36,56,124,-72,-90,39,73,-100,-120,70, 
  /* [11][0][][] */ 46,-12,-127,20,44,19,-22,36,-18,-30,-14,-12,-3,17,-43,0, 
  /* [12][0][][] */ 110,-49,3,13,-10,-53,-46,-30,31,11,-127,-22,-54,-21,3,43, 
  /* [13][0][][] */ 46,-78,32,-56,82,-14,-127,-115,26,-65,-4,18,30,6,37,-5, 
  /* [14][0][][] */ -40,16,-93,-39,79,-127,58,-64,49,51,-12,-96,17,104,-7,20, 
  /* [15][0][][] */ 32,-4,57,33,48,-48,-38,-15,13,-54,-66,-13,-127,-48,-10,44, 
  /* [16][0][][] */ -127,64,12,21,8,110,54,92,-17,25,127,19,5,7,4,-41, 
  /* [17][0][][] */ -12,-6,-49,-39,-37,8,39,76,-28,127,-24,5,-8,76,69,-2, 
  /* [18][0][][] */ 9,115,-48,10,6,6,63,-64,31,127,-51,114,14,-42,30,-106, 
  /* [19][0][][] */ 3,-19,33,13,4,43,-5,14,12,10,-42,-10,-127,-1,-6,26, 
  /* [20][0][][] */ 86,-64,-4,-85,-32,26,33,-84,-51,28,-127,-38,28,6,61,12, 
  /* [21][0][][] */ 40,1,127,37,-24,58,18,6,-3,18,-11,-9,-7,82,-2,-8, 
  /* [22][0][][] */ 35,7,26,22,-11,10,39,127,18,12,9,45,-3,32,17,11, 
  /* [23][0][][] */ -25,26,-101,19,28,-127,9,35,0,-16,-20,-8,-60,-6,2,42, 
  /* [24][0][][] */ 31,-51,0,-56,53,7,-17,-6,30,36,61,83,-44,74,127,39, 
  /* [25][0][][] */ -127,-78,-39,9,-1,12,20,-37,-55,12,-85,0,20,25,17,44, 
  /* [26][0][][] */ 7,-4,59,-8,-11,22,-41,79,-83,-70,-1,13,4,-127,32,-24, 
  /* [27][0][][] */ -102,45,-37,28,37,-17,7,17,35,-29,127,27,-18,-5,-7,-23, 
  /* [28][0][][] */ -18,-9,15,33,1,2,13,83,29,19,-23,-7,-127,-12,-8,40, 
  /* [29][0][][] */ -14,67,37,-42,34,-16,22,-25,-127,26,-27,1,4,32,-83,17, 
  /* [30][0][][] */ -19,0,-127,-44,33,-56,-1,28,-27,-23,1,-27,-45,-22,14,20, 
  /* [31][0][][] */ 127,-33,-110,14,41,14,-37,69,-11,-12,-66,-36,19,-1,-91,30, 
  /* [32][0][][] */ -127,40,22,30,9,84,9,38,10,-15,117,-2,-28,32,-10,-13, 
  /* [33][0][][] */ 6,-14,127,-24,-67,31,9,-31,-2,5,-2,19,-3,28,40,16, 
  /* [34][0][][] */ -6,-24,-50,-108,23,-9,5,-47,-25,-53,-46,-127,-14,-10,60,12, 
  /* [35][0][][] */ 5,-32,36,48,53,-27,22,-23,-126,48,-16,20,-27,127,-38,-46, 
  /* [36][0][][] */ -127,57,-42,3,-16,33,56,77,-15,37,123,-20,9,7,23,-31, 
  /* [37][0][][] */ -38,16,127,-34,-73,-75,20,-44,12,20,-6,10,-6,-74,61,6, 
  /* [38][0][][] */ 14,0,-24,17,33,-62,-63,0,-27,-13,72,-20,127,20,-9,18, 
  /* [39][0][][] */ -20,-24,-9,-41,-70,-100,64,127,-53,-13,-3,-60,9,55,56,72, 
  /* [40][0][][] */ 73,-8,-23,-17,-7,71,-21,0,7,-8,9,4,127,4,-32,-12, 
  /* [41][0][][] */ -18,-2,-31,-127,36,-4,-16,-72,-14,-42,9,-39,-12,-22,-14,26, 
  /* [42][0][][] */ 27,30,19,108,-87,8,-90,14,-62,-57,61,-64,-41,127,-53,-3, 
  /* [43][0][][] */ 23,122,-33,127,24,19,38,-80,-49,76,-10,21,2,-50,50,33, 
  /* [44][0][][] */ -9,-28,-127,24,61,87,-48,57,-15,-25,37,-21,4,-23,-59,-4, 
  /* [45][0][][] */ 14,21,-16,-127,-21,-14,48,-7,-6,25,-34,7,8,-80,35,-21, 
  /* [46][0][][] */ 5,46,50,-35,12,12,-57,50,9,-64,-33,0,6,127,64,-2, 
  /* [47][0][][] */ 22,-26,20,-39,-34,12,-71,60,-8,-39,14,38,13,-127,41,19, 
  /* [48][0][][] */ 3,-11,3,-127,-12,-19,-1,6,17,-24,14,-14,8,43,-10,57, 
  /* [49][0][][] */ 34,-40,-2,124,94,17,7,56,-58,15,40,48,-10,45,127,-6, 
  /* [50][0][][] */ -27,-23,84,-22,13,127,-40,-61,46,-39,111,45,88,-4,-3,-68, 
  /* [51][0][][] */ 28,44,12,13,21,4,-40,23,46,9,-1,127,13,34,29,-60, 
  /* [52][0][][] */ -26,79,127,-9,10,-40,1,-43,-37,-7,13,39,-6,104,-115,-20, 
  /* [53][0][][] */ 6,-21,-51,-127,-52,-1,11,-39,-19,44,3,-9,17,-18,49,14, 
  /* [54][0][][] */ 17,18,-20,-58,34,7,-24,6,58,-31,-7,-22,-19,127,23,38, 
  /* [55][0][][] */ -16,-30,-49,-13,16,-45,-7,-127,6,-90,-8,-16,-18,-82,-53,-22, 
  /* [56][0][][] */ 33,44,32,56,1,-15,20,127,17,-23,8,-33,75,-9,-46,31, 
  /* [57][0][][] */ 96,-10,127,-48,-86,-76,4,-51,8,10,-100,14,72,-61,72,23, 
  /* [58][0][][] */ 106,85,22,115,-127,-30,-1,40,-15,35,76,-21,-69,-51,-36,-70, 
  /* [59][0][][] */ 122,-52,-4,5,-24,-22,4,5,-32,30,-127,-12,13,-8,16,24, 
  /* [60][0][][] */ -127,43,-16,9,20,27,34,38,25,19,120,12,-30,-7,16,-28, 
  /* [61][0][][] */ -93,74,30,38,35,-15,-84,-68,127,-98,73,6,48,-48,-107,-69, 
  /* [62][0][][] */ -27,-25,-127,43,62,94,1,90,18,-66,43,-15,-67,-5,-115,-4, 
  /* [63][0][][] */ -40,13,127,-40,-48,-53,32,-26,9,16,4,15,-18,-45,76,17, 
  /* [64][0][][] */ 34,75,-20,17,56,-8,99,-127,-27,103,17,-27,-10,-117,4,58, 
  /* [65][0][][] */ 0,27,3,-20,61,14,6,-127,-28,-53,-30,-55,-10,-43,36,16, 
  /* [66][0][][] */ -127,-5,-16,10,-41,15,8,-43,-84,-45,-88,56,56,20,48,83, 
  /* [67][0][][] */ -17,-35,-4,127,10,1,-25,31,53,13,16,-16,-11,-43,-94,-26, 
  /* [68][0][][] */ 5,-3,-5,127,-50,-22,10,-24,-39,21,22,-23,-19,-59,-29,-55, 
  /* [69][0][][] */ 87,83,11,123,42,-12,50,-127,6,84,11,47,7,-47,25,-11, 
  /* [70][0][][] */ 21,-55,13,-93,125,-42,38,20,81,-47,69,-51,15,114,70,127, 
  /* [71][0][][] */ 18,42,4,78,40,-127,-34,87,34,-80,10,7,13,-56,-52,37, 
  /* [72][0][][] */ -127,-72,-16,50,23,30,-39,29,-48,-42,-102,44,62,29,-6,107, 
  /* [73][0][][] */ -22,-12,-4,73,13,-11,8,-13,74,23,-7,0,20,127,-63,-51, 
  /* [74][0][][] */ 70,-35,20,-48,-61,-19,39,-4,-63,-26,-122,12,-127,0,44,70, 
  /* [75][0][][] */ -14,-21,-34,127,-42,2,6,-18,-69,16,-11,-34,11,-53,-21,-23, 
  /* [76][0][][] */ 2,-18,-11,58,30,8,-27,-127,10,-107,0,32,-27,-20,23,-48, 
  /* [77][0][][] */ 127,-41,40,44,-31,-9,-45,-12,36,-13,-43,41,28,11,-41,26, 
  /* [78][0][][] */ -21,-5,47,-1,9,-5,-63,34,49,-29,-37,-32,23,127,29,-32, 
  /* [79][0][][] */ -8,18,48,21,44,62,-47,-50,16,-43,74,-14,127,-20,-31,-44, 
  /* [80][0][][] */ -98,-73,-82,127,3,34,42,2,-68,43,-76,2,45,-70,-19,25, 
  /* [81][0][][] */ 68,4,-72,33,127,90,-45,-36,-6,-111,-20,-78,-30,-8,-109,28, 
  /* [82][0][][] */ 123,120,-6,38,-127,-20,-63,-30,-74,8,101,-64,-46,82,3,-41, 
  /* [83][0][][] */ 127,39,11,-19,13,-16,-11,27,38,20,78,-33,-48,-30,-29,-76, 
  /* [84][0][][] */ 10,-69,-71,-26,53,14,-6,-127,-22,-55,18,21,-21,-9,12,-3, 
  /* [85][0][][] */ -27,-1,-53,-56,-15,-13,74,86,-15,127,-1,-48,38,67,56,-21, 
  /* [86][0][][] */ 116,-24,14,-6,-7,-43,-12,-28,1,-6,-127,0,14,26,-11,20, 
  /* [87][0][][] */ -19,38,2,-38,-12,62,-20,56,-1,-27,40,4,19,-127,23,6, 
  /* [88][0][][] */ -1,-12,-90,-43,58,-13,-29,-127,14,-25,-8,-37,-40,-10,37,-23, 
  /* [89][0][][] */ 21,-17,37,-115,42,15,-41,127,101,-65,40,18,-10,47,32,43, 
  /* [90][0][][] */ -16,19,-36,63,60,0,116,-98,66,127,-37,33,25,-2,-23,-23, 
  /* [91][0][][] */ 53,-7,-45,-19,0,-127,-20,-1,-13,-12,-50,-7,26,-8,6,29, 
  /* [92][0][][] */ 22,-11,127,83,58,24,13,37,-41,47,-82,33,17,86,-8,-19, 
  /* [93][0][][] */ 127,-39,-25,-8,-22,-50,6,32,-28,40,-121,-4,-7,12,-3,40, 
  /* [94][0][][] */ 20,-16,45,71,113,-34,-4,48,17,-12,-5,47,-2,127,-27,-74, 
  /* [95][0][][] */ -116,38,34,50,29,49,32,6,21,15,127,3,-16,29,-17,-35, 
};
const TfArray<96, float> quant19_scale = { 96, { 0.00055528769735246897, 0.00079907471081241965, 0.00062616693321615458, 0.0027758781798183918, 0.0012583219213411212, 0.00043893326073884964, 0.00051025825086981058, 0.0020894792396575212, 0.0010907911928370595, 0.00031351955840364099, 0.00067159434547647834, 0.0018775630742311478, 0.001053120126016438, 0.00046726156142540276, 0.00092413666425272822, 0.00097177753923460841, 0.00053335021948441863, 0.00075016048504039645, 0.00063273654086515307, 0.0022896411828696728, 0.0012625879608094692, 0.00055967149091884494, 0.0010255069937556982, 0.00073204073123633862, 0.0008137990371324122, 0.0015294017503038049, 0.0011323345825076103, 0.00064105534693226218, 0.0025236089713871479, 0.0010816875146701932, 0.00073372822953388095, 0.00061654148157685995, 0.00037191531737335026, 0.001821266720071435, 0.00071177893551066518, 0.0013349892105907202, 0.00030776733183301985, 0.0011168016353622079, 0.0020427845884114504, 0.00058666296536102891, 0.0021103383041918278, 0.00054409482982009649, 0.00045008753659203649, 0.00049685110570862889, 0.0010896821040660143, 0.00083547312533482909, 0.00058865011669695377, 0.0010284710442647338, 0.0011181271402165294, 0.00074305763700976968, 0.0014439098304137588, 0.002663745079189539, 0.0004401637997943908, 0.00070817803498357534, 0.0011178741697221994, 0.00042623010813258588, 0.0012864717282354832, 0.00055334594799205661, 0.0009639094932936132, 0.0012235393514856696, 0.00031511244014836848, 0.00077612878521904349, 0.0011832468444481492, 0.0014764327788725495, 0.000423777149990201, 0.00087167706806212664, 0.00098974525462836027, 0.001448105787858367, 0.00056895386660471559, 0.00044278547284193337, 0.00070527632487937808, 0.001204016269184649, 0.00073515274561941624, 0.0013360806042328477, 0.00075747061055153608, 0.001553424634039402, 0.00036642348277382553, 0.00082995992852374911, 0.00038187790778465569, 0.0020383668597787619, 0.00072685850318521261, 0.0014371246797963977, 0.00061304937116801739, 0.0014683891786262393, 0.0009316743235103786, 0.0010044295340776443, 0.00059710018103942275, 0.00087347661610692739, 0.00050820905016735196, 0.0011426499113440514, 0.00049391930224373937, 0.0011728981044143438, 0.00041111148311756551, 0.00042826737626455724, 0.00092236843192949891, 0.00063614425016567111, } };
const TfLiteAffineQuantization quant19 = { (TfLiteFloatArray*)&quant19_scale, (TfLiteIntArray*)&g0::quant6_zero, 0 };
const MODEL_SECTION(EI_MODEL_SECTION) ALIGN(16) int32_t tensor_data20[16] = { -39594, 2775, 3238, -7250, 950, -6851, -11237, -41876, 1899, 26725, 30991, -10894, -4589, -22151, 38013, -45405, };
const TfArray<16, float> quant20_scale = { 16, { 0.00067392998607829213, 0.00076464610174298286, 0.00097344722598791122, 0.0010257851099595428, 0.0008232731488533318, 0.0010338496649637818, 0.0011329335393384099, 0.0005090144113637507, 0.00066457834327593446, 0.00066157907713204622, 0.00079405406722798944, 0.00054575764806941152, 0.0010150272864848375, 0.001256345072761178, 0.00055310851894319057, 0.00060465378919616342, } };
const TfLiteAffineQuantization quant20 = { (TfLiteFloatArray*)&quant20_scale, (TfLiteIntArray*)&g0::quant8_zero, 0 };
const MODEL_SECTION(EI_MODEL_SECTION) ALIGN(16) int8_t tensor_data21[16*1*1*48] = { 
  /* [0][0][][] */ -18,-5,-21,8,28,-1,2,107,-53,20,46,-6,19,-12,-14,15,15,-11,-6,-6,67,-10,22,127,-20,90,-2,-11,29,-11,29,-26,-22,51,18,-48,16,49,20,-12,-113,-26,21,41,35,28,-126,-53, 
  /* [1][0][][] */ -33,-13,24,13,-29,10,2,56,-50,-31,3,-46,-20,-18,-2,-2,-23,116,-9,18,7,12,-26,-13,21,-45,16,22,-23,-79,-34,16,-22,-6,31,-3,-3,-37,3,19,-15,-30,127,10,10,-5,23,-11, 
  /* [2][0][][] */ -20,-8,-14,-36,-2,-68,7,-23,-2,12,15,27,18,13,-14,11,-2,-18,-23,-12,-3,-1,-2,-127,-11,76,-14,4,-2,-22,-3,-5,-8,57,10,-1,21,11,25,-1,-39,3,-23,-5,0,-9,14,7, 
  /* [3][0][][] */ -7,32,3,-29,-1,0,1,-6,-19,-6,-1,39,-127,6,-5,-3,-1,1,-16,-1,-27,6,7,16,-6,-11,2,22,-7,16,2,19,2,2,18,20,-10,25,39,1,11,4,22,-28,8,-2,4,19, 
  /* [4][0][][] */ 32,-30,5,11,17,29,22,-25,-30,1,-11,-15,0,12,3,16,19,-9,-76,5,-4,10,13,68,3,-24,7,46,8,-76,17,11,15,-35,32,-127,13,32,-2,15,-22,20,9,-21,-10,-16,7,2, 
  /* [5][0][][] */ 27,1,-24,56,-1,-4,10,26,-1,-2,38,11,3,51,1,2,-23,20,30,7,13,1,0,-27,-1,-51,5,-18,0,-9,2,11,67,-127,1,29,-16,-15,16,1,-90,58,17,-5,-7,2,-97,-11, 
  /* [6][0][][] */ 23,-1,4,4,-14,-3,3,-12,-1,7,0,7,-17,5,3,3,1,-10,127,8,8,9,14,-36,3,1,25,-11,-10,-2,-4,6,1,-13,28,-36,-2,-45,72,15,-2,-5,-6,5,-13,3,9,-13, 
  /* [7][0][][] */ -43,-17,-9,38,-7,77,-6,43,-2,30,-11,127,82,-7,-6,-4,-7,-20,-9,-20,-33,-2,-17,72,2,-36,-54,-33,-15,-19,-10,-16,1,3,-26,8,10,-64,96,2,28,26,-68,-62,17,-14,1,3, 
  /* [8][0][][] */ -47,-44,1,7,-2,2,3,31,-1,-67,3,40,45,10,8,7,-15,56,-32,8,-53,20,-8,-11,-1,4,8,40,-10,117,-11,24,-4,2,-14,-127,-109,67,33,27,19,-3,113,-24,9,28,19,32, 
  /* [9][0][][] */ -22,5,-4,32,18,-37,-6,-5,62,-46,7,56,-58,2,17,-1,-9,17,-32,-18,55,11,-12,-15,6,7,47,-29,15,7,8,3,-7,22,79,-101,-9,-127,-100,4,-28,23,61,12,5,13,-17,-42, 
  /* [10][0][][] */ -21,-6,-29,-127,42,88,9,-9,-5,36,21,9,44,-44,-35,19,33,-46,48,-35,28,-26,38,53,-52,-105,9,-30,52,36,43,-44,-32,-81,24,-10,15,-43,10,-35,-32,-60,-9,8,18,12,13,-35, 
  /* [11][0][][] */ -2,51,-7,65,38,-65,-77,-15,3,62,-17,5,-12,57,3,-78,18,38,2,-12,-57,-105,8,6,7,-36,16,-16,50,-33,25,-84,39,-17,-36,-93,85,22,10,-127,1,65,91,-72,-7,-53,27,35, 
  /* [12][0][][] */ 126,-1,-17,15,0,19,4,102,20,-10,-53,-20,-2,15,-13,-2,-10,6,-3,-3,5,0,1,20,1,17,-1,8,-2,16,-6,6,6,-62,-9,14,-16,-16,-28,-2,-16,-81,7,-127,-53,-7,78,-4, 
  /* [13][0][][] */ 11,5,-2,7,6,-11,0,-1,1,6,6,22,-6,4,6,-2,5,0,9,2,10,-10,8,-2,4,1,15,127,10,-5,5,-5,3,1,-36,22,11,-4,5,-15,-14,-4,0,6,-2,-4,-10,-11, 
  /* [14][0][][] */ 59,-25,48,-71,52,30,43,-92,-55,-51,-1,122,-67,-1,60,13,56,29,-55,64,17,13,72,-19,20,57,-35,-111,23,-31,63,41,-2,67,-127,-52,-42,42,91,14,-38,11,51,-3,-2,-2,16,-29, 
  /* [15][0][][] */ -7,-54,-77,-38,64,26,75,-49,-10,28,-16,-38,86,19,-101,65,60,56,76,-88,-108,-20,60,-16,-97,44,27,59,50,52,52,-56,26,59,95,127,-17,-110,-8,-29,94,61,120,-48,-3,-41,-17,65, 
};
const TfArray<4, int> tensor_dimension21 = { 4, { 16,1,1,48 } };
const TfArray<16, float> quant21_scale = { 16, { 0.028642022982239723, 0.032497458159923553, 0.041371505707502365, 0.043595865368843079, 0.034989107400178909, 0.043938610702753067, 0.048149675130844116, 0.02163311280310154, 0.028244579210877419, 0.028117110952734947, 0.033747296780347824, 0.023194698616862297, 0.043138660490512848, 0.053394664078950882, 0.023507110774517059, 0.025697784498333931, } };
const TfLiteAffineQuantization quant21 = { (TfLiteFloatArray*)&quant21_scale, (TfLiteIntArray*)&g0::quant8_zero, 0 };
const MODEL_SECTION(EI_MODEL_SECTION) ALIGN(16) int32_t tensor_data22[48] = { 7474, 33460, -1287, 40334, 4373, 127139, -1878, 54626, 4714, 30942, 24079, -768, 720, 29989, -30, -3127, -344, 1399, 2713, -2550, 1002, -3041, -789, -20845, -4169, 46941, 129271, 91510, 3440, 326, -2218, 202, 25820, 354, 16235, -2727, 27808, -787, 55591, 1870, 374, 64312, -179, 5032, 49027, -214, 3703, 45964, };
const TfArray<1, int> tensor_dimension22 = { 1, { 48 } };
const TfArray<48, float> quant22_scale = { 48, { 6.3362618675455451e-05, 3.5452143492875621e-05, 0.00018233494483865798, 5.6525292166043073e-05, 0.00012707828136626631, 6.6040796809829772e-05, 0.00014389923308044672, 0.00010397734877187759, 7.7005948696751148e-05, 4.0386439650319517e-05, 4.4014002924086526e-05, 0.00011280999751761556, 4.5124088501324877e-05, 3.1371433578897268e-05, 0.00016233816859312356, 0.00017165741883218288, 0.00015929747314658016, 7.4300958658568561e-05, 0.0001123599722632207, 0.00016261919518001378, 9.0508096036501229e-05, 0.00023890423472039402, 8.2979640865232795e-05, 0.00014088641910348088, 0.00013787469652015716, 9.3627801106777042e-05, 3.0458908440778032e-05, 8.276807056972757e-05, 0.0001025680176098831, 0.00013340327132027596, 0.00010637554805725813, 0.00014123973960522562, 4.7549048758810386e-05, 0.00013552897144109011, 3.5307304642628878e-05, 5.8632504078559577e-05, 0.00020991974452044815, 0.00010699743870645761, 0.00010198441304964945, 9.5499563030898571e-05, 0.00011234790872549638, 8.9881388703361154e-05, 9.2494447017088532e-05, 7.5610405474435538e-05, 3.2548046874580905e-05, 0.00014968332834541798, 9.012235386762768e-05, 3.2653697417117655e-05, } };
const TfArray<48, int> quant22_zero = { 48, { 0,0,0,0,0,0,0,0,0,0,0,0,0,0,0,0,0,0,0,0,0,0,0,0,0,0,0,0,0,0,0,0,0,0,0,0,0,0,0,0,0,0,0,0,0,0,0,0 } };
const TfLiteAffineQuantization quant22 = { (TfLiteFloatArray*)&quant22_scale, (TfLiteIntArray*)&quant22_zero, 0 };
const MODEL_SECTION(EI_MODEL_SECTION) ALIGN(16) int8_t tensor_data23[1*3*3*48] = { 
  /* [0][0][][] */ 68,-93,98,69,53,-34,106,-64,59,-89,-80,47,52,-41,-72,-90,102,80,49,78,66,-73,-83,50,-32,-41,-65,-63,-67,62,-63,-113,-13,41,69,64,-66,53,-49,-23,51,-74,58,61,-92,11,75,-33, 82,-96,127,85,-77,-68,-58,-84,96,-103,-63,73,81,-108,-97,91,-38,98,82,127,85,-115,52,71,-53,-77,-69,-79,56,79,-30,-127,-87,79,82,84,-82,82,-83,-16,76,-95,83,89,-73,-127,93,-102, 34,-46,70,37,18,-42,-48,-39,42,-32,6,33,29,-79,-56,-2,-54,39,34,70,33,-54,31,26,-28,-45,-44,-22,32,31,88,-89,-85,43,35,34,-30,38,-38,-11,41,-40,35,42,-7,-9,37,-74, 
  /* [0][1][][] */ 92,-113,-42,94,56,-82,127,-88,87,-113,-71,82,84,-110,-13,-127,127,108,74,-38,85,109,-127,72,74,-76,-94,-99,-127,86,-69,-8,-88,70,106,96,-85,78,-80,88,85,-101,87,90,-87,108,93,-92, 127,-127,-66,127,-127,-127,-91,-127,127,-127,-127,127,127,-127,-22,97,-66,127,127,-50,127,127,68,127,127,-127,-127,-127,53,127,-29,18,-127,127,127,127,-127,127,-127,127,127,-127,127,127,-127,-10,127,-127, 62,-78,-34,66,37,-63,-48,-62,56,-41,-59,58,48,-54,-16,11,-64,52,58,-29,57,65,50,63,66,-64,-62,-44,36,54,127,16,-61,69,48,49,-48,60,-60,55,60,-58,53,62,-63,-67,59,-58, 
  /* [0][2][][] */ 44,-50,-46,49,26,-53,64,-42,40,-71,-3,39,55,-72,83,-78,73,49,35,-30,27,-12,-77,30,-24,-43,-48,-48,-75,31,-41,92,-74,37,48,43,-27,36,-42,-87,48,-49,41,44,-22,16,40,-75, 71,-74,-49,80,-57,-64,-72,-67,50,-76,-66,60,73,-47,127,32,-46,58,62,-43,55,-19,41,66,-49,-66,-77,-61,31,61,-23,120,-55,65,57,58,-50,60,-67,-104,69,-67,61,62,-86,50,63,-52, 40,-40,-27,46,28,-20,-17,-34,14,-25,-51,28,30,4,67,24,-35,22,29,-31,27,-2,39,41,-25,-28,-48,-23,33,33,62,69,2,34,15,22,-23,30,-29,-55,29,-32,27,28,-63,9,30,-4, 
};
const TfArray<4, int> tensor_dimension23 = { 4, { 1,3,3,48 } };
